{"learner":{"attributes":{"scikit_learn":"{\"_estimator_type\": \"regressor\"}"},"feature_names":["hour","dayofweek","quarter","month","year","dayofyear","dayofmonth","weekofyear","rolling_mean_24h","rolling_std_24h","rolling_mean_7d","rolling_std_7d","ewm_24h","ewm_7d","sin_hour","cos_hour","sin_dayofyear","cos_dayofyear","lag1","lag2","lag3"],"feature_types":["int","int","int","int","int","int","int","int","float","float","float","float","float","float","float","float","float","float","float","float","float"],"gradient_booster":{"model":{"gbtree_model_param":{"num_parallel_tree":"1","num_trees":"1000"},"iteration_indptr":[0,1,2,3,4,5,6,7,8,9,10,11,12,13,14,15,16,17,18,19,20,21,22,23,24,25,26,27,28,29,30,31,32,33,34,35,36,37,38,39,40,41,42,43,44,45,46,47,48,49,50,51,52,53,54,55,56,57,58,59,60,61,62,63,64,65,66,67,68,69,70,71,72,73,74,75,76,77,78,79,80,81,82,83,84,85,86,87,88,89,90,91,92,93,94,95,96,97,98,99,100,101,102,103,104,105,106,107,108,109,110,111,112,113,114,115,116,117,118,119,120,121,122,123,124,125,126,127,128,129,130,131,132,133,134,135,136,137,138,139,140,141,142,143,144,145,146,147,148,149,150,151,152,153,154,155,156,157,158,159,160,161,162,163,164,165,166,167,168,169,170,171,172,173,174,175,176,177,178,179,180,181,182,183,184,185,186,187,188,189,190,191,192,193,194,195,196,197,198,199,200,201,202,203,204,205,206,207,208,209,210,211,212,213,214,215,216,217,218,219,220,221,222,223,224,225,226,227,228,229,230,231,232,233,234,235,236,237,238,239,240,241,242,243,244,245,246,247,248,249,250,251,252,253,254,255,256,257,258,259,260,261,262,263,264,265,266,267,268,269,270,271,272,273,274,275,276,277,278,279,280,281,282,283,284,285,286,287,288,289,290,291,292,293,294,295,296,297,298,299,300,301,302,303,304,305,306,307,308,309,310,311,312,313,314,315,316,317,318,319,320,321,322,323,324,325,326,327,328,329,330,331,332,333,334,335,336,337,338,339,340,341,342,343,344,345,346,347,348,349,350,351,352,353,354,355,356,357,358,359,360,361,362,363,364,365,366,367,368,369,370,371,372,373,374,375,376,377,378,379,380,381,382,383,384,385,386,387,388,389,390,391,392,393,394,395,396,397,398,399,400,401,402,403,404,405,406,407,408,409,410,411,412,413,414,415,416,417,418,419,420,421,422,423,424,425,426,427,428,429,430,431,432,433,434,435,436,437,438,439,440,441,442,443,444,445,446,447,448,449,450,451,452,453,454,455,456,457,458,459,460,461,462,463,464,465,466,467,468,469,470,471,472,473,474,475,476,477,478,479,480,481,482,483,484,485,486,487,488,489,490,491,492,493,494,495,496,497,498,499,500,501,502,503,504,505,506,507,508,509,510,511,512,513,514,515,516,517,518,519,520,521,522,523,524,525,526,527,528,529,530,531,532,533,534,535,536,537,538,539,540,541,542,543,544,545,546,547,548,549,550,551,552,553,554,555,556,557,558,559,560,561,562,563,564,565,566,567,568,569,570,571,572,573,574,575,576,577,578,579,580,581,582,583,584,585,586,587,588,589,590,591,592,593,594,595,596,597,598,599,600,601,602,603,604,605,606,607,608,609,610,611,612,613,614,615,616,617,618,619,620,621,622,623,624,625,626,627,628,629,630,631,632,633,634,635,636,637,638,639,640,641,642,643,644,645,646,647,648,649,650,651,652,653,654,655,656,657,658,659,660,661,662,663,664,665,666,667,668,669,670,671,672,673,674,675,676,677,678,679,680,681,682,683,684,685,686,687,688,689,690,691,692,693,694,695,696,697,698,699,700,701,702,703,704,705,706,707,708,709,710,711,712,713,714,715,716,717,718,719,720,721,722,723,724,725,726,727,728,729,730,731,732,733,734,735,736,737,738,739,740,741,742,743,744,745,746,747,748,749,750,751,752,753,754,755,756,757,758,759,760,761,762,763,764,765,766,767,768,769,770,771,772,773,774,775,776,777,778,779,780,781,782,783,784,785,786,787,788,789,790,791,792,793,794,795,796,797,798,799,800,801,802,803,804,805,806,807,808,809,810,811,812,813,814,815,816,817,818,819,820,821,822,823,824,825,826,827,828,829,830,831,832,833,834,835,836,837,838,839,840,841,842,843,844,845,846,847,848,849,850,851,852,853,854,855,856,857,858,859,860,861,862,863,864,865,866,867,868,869,870,871,872,873,874,875,876,877,878,879,880,881,882,883,884,885,886,887,888,889,890,891,892,893,894,895,896,897,898,899,900,901,902,903,904,905,906,907,908,909,910,911,912,913,914,915,916,917,918,919,920,921,922,923,924,925,926,927,928,929,930,931,932,933,934,935,936,937,938,939,940,941,942,943,944,945,946,947,948,949,950,951,952,953,954,955,956,957,958,959,960,961,962,963,964,965,966,967,968,969,970,971,972,973,974,975,976,977,978,979,980,981,982,983,984,985,986,987,988,989,990,991,992,993,994,995,996,997,998,999,1000],"tree_info":[0,0,0,0,0,0,0,0,0,0,0,0,0,0,0,0,0,0,0,0,0,0,0,0,0,0,0,0,0,0,0,0,0,0,0,0,0,0,0,0,0,0,0,0,0,0,0,0,0,0,0,0,0,0,0,0,0,0,0,0,0,0,0,0,0,0,0,0,0,0,0,0,0,0,0,0,0,0,0,0,0,0,0,0,0,0,0,0,0,0,0,0,0,0,0,0,0,0,0,0,0,0,0,0,0,0,0,0,0,0,0,0,0,0,0,0,0,0,0,0,0,0,0,0,0,0,0,0,0,0,0,0,0,0,0,0,0,0,0,0,0,0,0,0,0,0,0,0,0,0,0,0,0,0,0,0,0,0,0,0,0,0,0,0,0,0,0,0,0,0,0,0,0,0,0,0,0,0,0,0,0,0,0,0,0,0,0,0,0,0,0,0,0,0,0,0,0,0,0,0,0,0,0,0,0,0,0,0,0,0,0,0,0,0,0,0,0,0,0,0,0,0,0,0,0,0,0,0,0,0,0,0,0,0,0,0,0,0,0,0,0,0,0,0,0,0,0,0,0,0,0,0,0,0,0,0,0,0,0,0,0,0,0,0,0,0,0,0,0,0,0,0,0,0,0,0,0,0,0,0,0,0,0,0,0,0,0,0,0,0,0,0,0,0,0,0,0,0,0,0,0,0,0,0,0,0,0,0,0,0,0,0,0,0,0,0,0,0,0,0,0,0,0,0,0,0,0,0,0,0,0,0,0,0,0,0,0,0,0,0,0,0,0,0,0,0,0,0,0,0,0,0,0,0,0,0,0,0,0,0,0,0,0,0,0,0,0,0,0,0,0,0,0,0,0,0,0,0,0,0,0,0,0,0,0,0,0,0,0,0,0,0,0,0,0,0,0,0,0,0,0,0,0,0,0,0,0,0,0,0,0,0,0,0,0,0,0,0,0,0,0,0,0,0,0,0,0,0,0,0,0,0,0,0,0,0,0,0,0,0,0,0,0,0,0,0,0,0,0,0,0,0,0,0,0,0,0,0,0,0,0,0,0,0,0,0,0,0,0,0,0,0,0,0,0,0,0,0,0,0,0,0,0,0,0,0,0,0,0,0,0,0,0,0,0,0,0,0,0,0,0,0,0,0,0,0,0,0,0,0,0,0,0,0,0,0,0,0,0,0,0,0,0,0,0,0,0,0,0,0,0,0,0,0,0,0,0,0,0,0,0,0,0,0,0,0,0,0,0,0,0,0,0,0,0,0,0,0,0,0,0,0,0,0,0,0,0,0,0,0,0,0,0,0,0,0,0,0,0,0,0,0,0,0,0,0,0,0,0,0,0,0,0,0,0,0,0,0,0,0,0,0,0,0,0,0,0,0,0,0,0,0,0,0,0,0,0,0,0,0,0,0,0,0,0,0,0,0,0,0,0,0,0,0,0,0,0,0,0,0,0,0,0,0,0,0,0,0,0,0,0,0,0,0,0,0,0,0,0,0,0,0,0,0,0,0,0,0,0,0,0,0,0,0,0,0,0,0,0,0,0,0,0,0,0,0,0,0,0,0,0,0,0,0,0,0,0,0,0,0,0,0,0,0,0,0,0,0,0,0,0,0,0,0,0,0,0,0,0,0,0,0,0,0,0,0,0,0,0,0,0,0,0,0,0,0,0,0,0,0,0,0,0,0,0,0,0,0,0,0,0,0,0,0,0,0,0,0,0,0,0,0,0,0,0,0,0,0,0,0,0,0,0,0,0,0,0,0,0,0,0,0,0,0,0,0,0,0,0,0,0,0,0,0,0,0,0,0,0,0,0,0,0,0,0,0,0,0,0,0,0,0,0,0,0,0,0,0,0,0,0,0,0,0,0,0,0,0,0,0,0,0,0,0,0,0,0,0,0,0,0,0,0,0,0,0,0,0,0,0,0,0,0,0,0,0,0,0,0,0,0,0,0,0,0,0,0,0,0,0,0,0,0,0,0,0,0,0,0,0,0,0,0,0,0,0,0,0,0,0,0,0,0,0,0,0,0,0,0,0,0,0,0,0,0,0,0,0,0,0,0,0,0,0,0,0,0,0,0,0,0,0,0,0,0,0,0,0,0,0,0,0,0,0,0,0,0,0,0,0,0,0,0,0,0,0,0,0,0,0,0,0,0,0,0,0,0,0,0,0,0,0,0,0,0,0,0,0,0,0,0,0,0,0,0,0,0,0,0,0,0,0,0,0,0,0,0,0,0,0,0,0,0,0,0,0,0,0,0,0],"trees":[{"base_weights":[3.208109E4,2.9218336E4,3.763653E4,2.4716914E4,3.1124049E4,3.132369E4,4.0451727E4,2.3121404E4,2.6417887E4,2.8528213E4,3.2805305E4,3.0339824E4,3.414747E4,3.8191332E4,4.52907E4,2.2171035E4,2.384224E4,2.745039E4,2.5524146E4,2.6520482E4,2.9522816E4,3.1721328E4,3.4181285E4,2.8824396E4,3.2077533E4,3.3178027E4,3.674617E4,3.7123023E4,3.9907574E4,4.3456332E4,4.8826973E4,2.1874387E2,2.315523E2,2.48863E2,2.3314714E2,2.657651E2,2.8492838E2,2.4691129E2,2.6279382E2,2.8280984E2,2.578829E2,3.0178723E2,2.8379965E2,3.191344E2,2.8627838E2,3.439815E2,3.072325E2,3.1282916E2,2.8426776E2,3.12063E2,3.5564288E2,3.2427203E2,3.671235E2,3.9401166E2,3.5649796E2,3.7438272E2,3.371389E2,3.4935226E2,4.0636887E2,4.4321268E2,3.927539E2,5.0747205E2,4.511116E2],"categories":[],"categories_nodes":[],"categories_segments":[],"categories_sizes":[],"default_left":[0,0,0,0,0,0,0,0,1,0,0,0,0,0,0,0,1,0,0,0,0,0,0,0,0,0,0,0,0,0,0,0,0,0,0,0,0,0,0,0,0,0,0,0,0,0,0,0,0,0,0,0,0,0,0,0,0,0,0,0,0,0,0],"id":0,"left_children":[1,3,5,7,9,11,13,15,17,19,21,23,25,27,29,31,33,35,37,39,41,43,45,47,49,51,53,55,57,59,61,-1,-1,-1,-1,-1,-1,-1,-1,-1,-1,-1,-1,-1,-1,-1,-1,-1,-1,-1,-1,-1,-1,-1,-1,-1,-1,-1,-1,-1,-1,-1,-1],"loss_changes":[2.3105582E12,8.221339E11,8.771296E11,7.68365E10,2.9317766E11,4.1326477E10,3.7212285E11,9.564586E9,1.2038701E10,5.2131004E10,5.991144E10,2.8876734E10,8.686928E9,4.124259E10,6.8434264E10,1.3531873E9,4.027056E9,5.0656707E9,4.0155218E9,1.0599006E10,1.2419334E10,1.2685672E10,1.2446597E10,5.029495E9,1.4877721E10,6.4358973E9,1.6779837E9,1.418933E10,3.0952915E10,2.4190648E10,2.416024E10,0E0,0E0,0E0,0E0,0E0,0E0,0E0,0E0,0E0,0E0,0E0,0E0,0E0,0E0,0E0,0E0,0E0,0E0,0E0,0E0,0E0,0E0,0E0,0E0,0E0,0E0,0E0,0E0,0E0,0E0,0E0,0E0],"parents":[2147483647,0,0,1,1,2,2,3,3,4,4,5,5,6,6,7,7,8,8,9,9,10,10,11,11,12,12,13,13,14,14,15,15,16,16,17,17,18,18,19,19,20,20,21,21,22,22,23,23,24,24,25,25,26,26,27,27,28,28,29,29,30,30],"right_children":[2,4,6,8,10,12,14,16,18,20,22,24,26,28,30,32,34,36,38,40,42,44,46,48,50,52,54,56,58,60,62,-1,-1,-1,-1,-1,-1,-1,-1,-1,-1,-1,-1,-1,-1,-1,-1,-1,-1,-1,-1,-1,-1,-1,-1,-1,-1,-1,-1,-1,-1,-1,-1],"split_conditions":[3.344383E4,7E0,8E0,2.928725E4,2.8790012E4,3.8891605E4,3.8448375E4,2.7111229E4,3.6812483E3,2.6423195E4,3.116498E4,2.3955657E-1,4.292595E4,5.4397695E3,4.2128945E4,6E0,3.2306672E3,3.1258158E4,3.116498E4,5E0,5E0,2.3E1,2.3E1,1E0,6E0,1.5526626E-1,1E0,2.3E1,1E1,2.2E1,2.1E1,2.1874387E2,2.315523E2,2.48863E2,2.3314714E2,2.657651E2,2.8492838E2,2.4691129E2,2.6279382E2,2.8280984E2,2.578829E2,3.0178723E2,2.8379965E2,3.191344E2,2.8627838E2,3.439815E2,3.072325E2,3.1282916E2,2.8426776E2,3.12063E2,3.5564288E2,3.2427203E2,3.671235E2,3.9401166E2,3.5649796E2,3.7438272E2,3.371389E2,3.4935226E2,4.0636887E2,4.4321268E2,3.927539E2,5.0747205E2,4.511116E2],"split_indices":[12,0,0,12,12,12,12,12,9,12,12,17,12,9,12,0,9,12,12,1,1,0,0,0,0,17,0,0,0,0,0,0,0,0,0,0,0,0,0,0,0,0,0,0,0,0,0,0,0,0,0,0,0,0,0,0,0,0,0,0,0,0,0],"split_type":[0,0,0,0,0,0,0,0,0,0,0,0,0,0,0,0,0,0,0,0,0,0,0,0,0,0,0,0,0,0,0,0,0,0,0,0,0,0,0,0,0,0,0,0,0,0,0,0,0,0,0,0,0,0,0,0,0,0,0,0,0,0,0],"sum_hessian":[1.45351E5,9.5926E4,4.9425E4,2.8536E4,6.739E4,1.5247E4,3.4178E4,1.4732E4,1.3804E4,2.6497E4,4.0893E4,1.1316E4,3.931E3,2.3302E4,1.0876E4,6.368E3,8.364E3,6.391E3,7.413E3,8.787E3,1.771E4,2.2887E4,1.8006E4,6.054E3,5.262E3,2.873E3,1.058E3,1.4376E4,8.926E3,7.17E3,3.706E3,4.911E3,1.457E3,2.792E3,5.572E3,3.491E3,2.9E3,3.541E3,3.872E3,2.57E3,6.217E3,1.1236E4,6.474E3,2.154E4,1.347E3,1.6935E4,1.071E3,8.32E2,5.222E3,4.218E3,1.044E3,2.378E3,4.95E2,2.99E2,7.59E2,1.315E4,1.226E3,1.148E3,7.778E3,5.933E3,1.237E3,2.435E3,1.271E3],"tree_param":{"num_deleted":"0","num_feature":"21","num_nodes":"63","size_leaf_vector":"1"}},{"base_weights":[3.176035E4,2.89262E4,3.7260285E4,2.4469814E4,3.0812844E4,3.101063E4,4.0047305E4,2.2890254E4,2.6153785E4,2.8242975E4,3.2477285E4,3.0066162E4,3.3894395E4,3.7870207E4,4.4972984E4,2.1949395E4,2.3603875E4,2.7196426E4,2.5286125E4,2.6317512E4,2.9259562E4,3.1404143E4,3.383951E4,2.8584781E4,3.1789283E4,3.2905695E4,3.6379418E4,3.6774277E4,3.9647336E4,4.312189E4,4.833896E4,2.1655687E2,2.2923836E2,2.471917E2,2.31188E2,2.6334814E2,2.8225815E2,2.4453894E2,2.604022E2,2.8041623E2,2.5573006E2,2.9897266E2,2.8132422E2,3.159432E2,2.8341772E2,3.4155527E2,3.149906E2,2.7584686E2,2.9552127E2,3.0921826E2,3.5250366E2,3.2185385E2,3.6391928E2,3.900847E2,3.5293768E2,3.7238232E2,3.391898E2,4.0242624E2,3.6314926E2,4.3989807E2,3.8942493E2,5.0239944E2,4.4660397E2],"categories":[],"categories_nodes":[],"categories_segments":[],"categories_sizes":[],"default_left":[0,0,0,0,0,0,0,0,1,0,0,0,0,0,0,0,1,0,0,0,0,0,0,0,0,0,0,0,0,0,0,0,0,0,0,0,0,0,0,0,0,0,0,0,0,0,0,0,0,0,0,0,0,0,0,0,0,0,0,0,0,0,0],"id":1,"left_children":[1,3,5,7,9,11,13,15,17,19,21,23,25,27,29,31,33,35,37,39,41,43,45,47,49,51,53,55,57,59,61,-1,-1,-1,-1,-1,-1,-1,-1,-1,-1,-1,-1,-1,-1,-1,-1,-1,-1,-1,-1,-1,-1,-1,-1,-1,-1,-1,-1,-1,-1,-1,-1],"loss_changes":[2.2646222E12,8.0576774E11,8.5965616E11,7.530768E10,2.873392E11,4.0510685E10,3.6482476E11,9.373221E9,1.1801723E10,5.109711E10,5.8720256E10,2.8433187E10,8.026063E9,4.4715475E10,6.315783E10,1.3261865E9,3.9547044E9,4.805624E9,4.1009807E9,1.1048845E10,1.1617174E10,1.2431917E10,1.2238979E10,5.1741983E9,1.483735E10,5.5991337E9,1.6460022E9,1.8184405E10,1.6453206E10,2.282645E10,2.3677895E10,0E0,0E0,0E0,0E0,0E0,0E0,0E0,0E0,0E0,0E0,0E0,0E0,0E0,0E0,0E0,0E0,0E0,0E0,0E0,0E0,0E0,0E0,0E0,0E0,0E0,0E0,0E0,0E0,0E0,0E0,0E0,0E0],"parents":[2147483647,0,0,1,1,2,2,3,3,4,4,5,5,6,6,7,7,8,8,9,9,10,10,11,11,12,12,13,13,14,14,15,15,16,16,17,17,18,18,19,19,20,20,21,21,22,22,23,23,24,24,25,25,26,26,27,27,28,28,29,29,30,30],"right_children":[2,4,6,8,10,12,14,16,18,20,22,24,26,28,30,32,34,36,38,40,42,44,46,48,50,52,54,56,58,60,62,-1,-1,-1,-1,-1,-1,-1,-1,-1,-1,-1,-1,-1,-1,-1,-1,-1,-1,-1,-1,-1,-1,-1,-1,-1,-1,-1,-1,-1,-1,-1,-1],"split_conditions":[3.344383E4,7E0,8E0,2.928725E4,2.8790012E4,3.9046953E4,3.8589375E4,2.7111229E4,3.6508423E3,2.6495037E4,3.116498E4,2.3955657E-1,4.292595E4,3.613216E4,4.2128945E4,6E0,3.1593083E3,3.1258158E4,3.116498E4,5E0,5E0,2.3E1,2.2E1,3.5886145E4,6E0,1.5526626E-1,1E0,2.2E1,2.2E1,2.2E1,2.1E1,2.1655687E2,2.2923836E2,2.471917E2,2.31188E2,2.6334814E2,2.8225815E2,2.4453894E2,2.604022E2,2.8041623E2,2.5573006E2,2.9897266E2,2.8132422E2,3.159432E2,2.8341772E2,3.4155527E2,3.149906E2,2.7584686E2,2.9552127E2,3.0921826E2,3.5250366E2,3.2185385E2,3.6391928E2,3.900847E2,3.5293768E2,3.7238232E2,3.391898E2,4.0242624E2,3.6314926E2,4.3989807E2,3.8942493E2,5.0239944E2,4.4660397E2],"split_indices":[12,0,0,12,12,12,12,12,9,12,12,17,12,12,12,0,9,12,12,1,1,0,0,12,0,17,0,0,0,0,0,0,0,0,0,0,0,0,0,0,0,0,0,0,0,0,0,0,0,0,0,0,0,0,0,0,0,0,0,0,0,0,0],"split_type":[0,0,0,0,0,0,0,0,0,0,0,0,0,0,0,0,0,0,0,0,0,0,0,0,0,0,0,0,0,0,0,0,0,0,0,0,0,0,0,0,0,0,0,0,0,0,0,0,0,0,0,0,0,0,0,0,0,0,0,0,0,0,0],"sum_hessian":[1.45351E5,9.5926E4,4.9425E4,2.8536E4,6.739E4,1.5247E4,3.4178E4,1.4732E4,1.3804E4,2.6497E4,4.0893E4,1.1494E4,3.753E3,2.3708E4,1.047E4,6.368E3,8.364E3,6.256E3,7.548E3,9.165E3,1.7332E4,2.2887E4,1.8006E4,6.19E3,5.304E3,2.695E3,1.058E3,1.4678E4,9.03E3,6.764E3,3.706E3,4.911E3,1.457E3,2.52E3,5.844E3,3.42E3,2.836E3,3.604E3,3.944E3,2.753E3,6.412E3,1.1053E4,6.279E3,2.154E4,1.347E3,1.5852E4,2.154E3,3.058E3,3.132E3,4.249E3,1.055E3,2.242E3,4.53E2,2.99E2,7.59E2,1.2616E4,2.062E3,7.652E3,1.378E3,5.593E3,1.171E3,2.435E3,1.271E3],"tree_param":{"num_deleted":"0","num_feature":"21","num_nodes":"63","size_leaf_vector":"1"}},{"base_weights":[3.1442816E4,2.8587947E4,3.679452E4,2.4186783E4,3.0452963E4,3.0641318E4,3.9542582E4,2.2625697E4,2.5813828E4,2.792848E4,3.2079244E4,2.9475918E4,3.2968246E4,3.735044E4,4.4390395E4,2.172997E4,2.3332357E4,2.6816217E4,2.4937096E4,2.5992418E4,2.8910059E4,3.0889686E4,3.3242516E4,2.7931504E4,3.1110523E4,3.2181355E4,3.6016324E4,3.6256348E4,3.9051324E4,4.2592773E4,4.785583E4,2.1439175E2,2.2694756E2,2.443216E2,2.2852827E2,2.6003122E2,2.788049E2,2.4093468E2,2.5644537E2,2.7717975E2,2.5274759E2,2.955576E2,2.7794498E2,3.107496E2,2.7857324E2,3.355984E2,3.0930106E2,3.0322537E2,2.7542297E2,3.024273E2,3.449699E2,3.1298126E2,3.5290204E2,3.8619684E2,3.4941293E2,3.6712344E2,3.3461395E2,3.9623102E2,3.5795386E2,4.3440457E2,3.8495242E2,4.973775E2,4.4214148E2],"categories":[],"categories_nodes":[],"categories_segments":[],"categories_sizes":[],"default_left":[0,0,0,0,0,0,0,0,1,0,0,0,0,0,0,0,1,0,0,0,0,0,0,0,0,0,0,0,0,0,0,0,0,0,0,0,0,0,0,0,0,0,0,0,0,0,0,0,0,0,0,0,0,0,0,0,0,0,0,0,0,0,0],"id":2,"left_children":[1,3,5,7,9,11,13,15,17,19,21,23,25,27,29,31,33,35,37,39,41,43,45,47,49,51,53,55,57,59,61,-1,-1,-1,-1,-1,-1,-1,-1,-1,-1,-1,-1,-1,-1,-1,-1,-1,-1,-1,-1,-1,-1,-1,-1,-1,-1,-1,-1,-1,-1,-1,-1],"loss_changes":[2.219676E12,7.7733875E11,8.537422E11,7.108821E10,2.7242843E11,4.1370518E10,3.697363E11,8.614052E9,1.1468276E10,4.883428E10,5.499991E10,2.5417482E10,1.1317805E10,4.3381686E10,6.572055E10,1.2999721E9,3.6820746E9,4.8397025E9,3.7869322E9,1.0182197E10,1.1644436E10,1.0387194E10,1.3969129E10,4.1568174E9,1.3797163E10,1.0274472E10,1.6145449E9,1.745879E10,1.6099836E10,2.3235396E10,2.320656E10,0E0,0E0,0E0,0E0,0E0,0E0,0E0,0E0,0E0,0E0,0E0,0E0,0E0,0E0,0E0,0E0,0E0,0E0,0E0,0E0,0E0,0E0,0E0,0E0,0E0,0E0,0E0,0E0,0E0,0E0,0E0,0E0],"parents":[2147483647,0,0,1,1,2,2,3,3,4,4,5,5,6,6,7,7,8,8,9,9,10,10,11,11,12,12,13,13,14,14,15,15,16,16,17,17,18,18,19,19,20,20,21,21,22,22,23,23,24,24,25,25,26,26,27,27,28,28,29,29,30,30],"right_children":[2,4,6,8,10,12,14,16,18,20,22,24,26,28,30,32,34,36,38,40,42,44,46,48,50,52,54,56,58,60,62,-1,-1,-1,-1,-1,-1,-1,-1,-1,-1,-1,-1,-1,-1,-1,-1,-1,-1,-1,-1,-1,-1,-1,-1,-1,-1,-1,-1,-1,-1,-1,-1],"split_conditions":[3.3328312E4,7E0,8E0,2.9205838E4,2.8750176E4,3.7919668E4,3.8448375E4,2.7111229E4,3.6812483E3,2.6423195E4,3.0786633E4,2.3955657E-1,4.292595E4,3.5966086E4,4.2128945E4,6E0,3.1593083E3,3.1258158E4,3.0973166E4,5E0,5E0,2.3E1,2.2E1,1E0,6E0,4.0221357E-1,1E0,2.2E1,2.2E1,2.2E1,2.1E1,2.1439175E2,2.2694756E2,2.443216E2,2.2852827E2,2.6003122E2,2.788049E2,2.4093468E2,2.5644537E2,2.7717975E2,2.5274759E2,2.955576E2,2.7794498E2,3.107496E2,2.7857324E2,3.355984E2,3.0930106E2,3.0322537E2,2.7542297E2,3.024273E2,3.449699E2,3.1298126E2,3.5290204E2,3.8619684E2,3.4941293E2,3.6712344E2,3.3461395E2,3.9623102E2,3.5795386E2,4.3440457E2,3.8495242E2,4.973775E2,4.4214148E2],"split_indices":[12,0,0,12,12,12,12,12,9,12,12,17,12,12,12,0,9,12,12,1,1,0,0,0,0,17,0,0,0,0,0,0,0,0,0,0,0,0,0,0,0,0,0,0,0,0,0,0,0,0,0,0,0,0,0,0,0,0,0,0,0,0,0],"split_type":[0,0,0,0,0,0,0,0,0,0,0,0,0,0,0,0,0,0,0,0,0,0,0,0,0,0,0,0,0,0,0,0,0,0,0,0,0,0,0,0,0,0,0,0,0,0,0,0,0,0,0,0,0,0,0,0,0,0,0,0,0,0,0],"sum_hessian":[1.45351E5,9.4791E4,5.056E4,2.8217E4,6.6574E4,1.5613E4,3.4947E4,1.4408E4,1.3809E4,2.6091E4,4.0483E4,1.0412E4,5.201E3,2.4071E4,1.0876E4,6.368E3,8.04E3,6.429E3,7.38E3,8.787E3,1.7304E4,2.0029E4,2.0454E4,5.363E3,5.049E3,4.143E3,1.058E3,1.4662E4,9.409E3,7.17E3,3.706E3,4.911E3,1.457E3,2.426E3,5.614E3,3.659E3,2.77E3,3.382E3,3.998E3,2.57E3,6.217E3,1.0944E4,6.36E3,1.8867E4,1.162E3,1.7974E4,2.48E3,7.4E2,4.623E3,4.027E3,1.022E3,3.235E3,9.08E2,2.99E2,7.59E2,1.2595E4,2.067E3,7.994E3,1.415E3,5.933E3,1.237E3,2.435E3,1.271E3],"tree_param":{"num_deleted":"0","num_feature":"21","num_nodes":"63","size_leaf_vector":"1"}},{"base_weights":[3.1128459E4,2.8350486E4,3.651937E4,2.3982791E4,3.0199586E4,3.039425E4,3.9250855E4,2.2434678E4,2.5633234E4,2.7801246E4,3.1913068E4,2.937728E4,3.2974996E4,3.7173906E4,4.421338E4,2.1657691E4,2.3267625E4,2.6655475E4,2.4782553E4,2.5908146E4,2.883347E4,3.0850857E4,3.316746E4,2.7882736E4,3.105171E4,3.208934E4,3.565686E4,3.6042535E4,3.8932395E4,4.2365945E4,4.7377523E4,2.1364755E2,2.2656003E2,2.446742E2,2.2777785E2,2.581159E2,2.7663678E2,2.3966867E2,2.5521654E2,2.7563245E2,2.5143498E2,2.9422455E2,2.773382E2,3.104309E2,2.7823196E2,3.3379187E2,2.9791534E2,3.0265778E2,2.7497702E2,3.020521E2,3.442396E2,3.1308008E2,3.544575E2,3.8234778E2,3.459234E2,3.649721E2,3.3244336E2,3.9521408E2,3.5647644E2,4.34834E2,3.9169717E2,4.9240576E2,4.3772354E2],"categories":[],"categories_nodes":[],"categories_segments":[],"categories_sizes":[],"default_left":[0,0,0,0,0,0,0,0,1,0,0,0,0,0,0,0,1,0,0,0,0,0,0,0,0,0,0,0,0,0,0,0,0,0,0,0,0,0,0,0,0,0,0,0,0,0,0,0,0,0,0,0,0,0,0,0,0,0,0,0,0,0,0],"id":3,"left_children":[1,3,5,7,9,11,13,15,17,19,21,23,25,27,29,31,33,35,37,39,41,43,45,47,49,51,53,55,57,59,61,-1,-1,-1,-1,-1,-1,-1,-1,-1,-1,-1,-1,-1,-1,-1,-1,-1,-1,-1,-1,-1,-1,-1,-1,-1,-1,-1,-1,-1,-1,-1,-1],"loss_changes":[2.1757197E12,7.740085E11,8.257452E11,7.233811E10,2.760565E11,3.904897E10,3.5063543E11,9.031385E9,1.1344544E10,5.414427E10,5.1342475E10,2.6530021E10,9.073852E9,4.654419E10,5.6910414E10,1.749549E9,3.6139172E9,4.60954E9,3.9389757E9,1.1864637E10,1.0951328E10,1.1532239E10,1.1876172E10,4.4842353E9,1.3672382E10,7.3977037E9,1.5836119E9,1.7462985E10,1.6822305E10,2.10596E10,2.274309E10,0E0,0E0,0E0,0E0,0E0,0E0,0E0,0E0,0E0,0E0,0E0,0E0,0E0,0E0,0E0,0E0,0E0,0E0,0E0,0E0,0E0,0E0,0E0,0E0,0E0,0E0,0E0,0E0,0E0,0E0,0E0,0E0],"parents":[2147483647,0,0,1,1,2,2,3,3,4,4,5,5,6,6,7,7,8,8,9,9,10,10,11,11,12,12,13,13,14,14,15,15,16,16,17,17,18,18,19,19,20,20,21,21,22,22,23,23,24,24,25,25,26,26,27,27,28,28,29,29,30,30],"right_children":[2,4,6,8,10,12,14,16,18,20,22,24,26,28,30,32,34,36,38,40,42,44,46,48,50,52,54,56,58,60,62,-1,-1,-1,-1,-1,-1,-1,-1,-1,-1,-1,-1,-1,-1,-1,-1,-1,-1,-1,-1,-1,-1,-1,-1,-1,-1,-1,-1,-1,-1,-1,-1],"split_conditions":[3.344383E4,7E0,8E0,2.928725E4,2.8956846E4,3.8589375E4,3.8737906E4,2.7478791E4,3.6508423E3,2.6628832E4,3.116498E4,2.3955657E-1,4.292595E4,3.613216E4,4.2128945E4,6E0,3.1488108E3,3.1258158E4,3.116498E4,5E0,5E0,2.3E1,2.3E1,1E0,6E0,1.5526626E-1,1E0,2.2E1,2.2E1,2.1E1,2.1E1,2.1364755E2,2.2656003E2,2.446742E2,2.2777785E2,2.581159E2,2.7663678E2,2.3966867E2,2.5521654E2,2.7563245E2,2.5143498E2,2.9422455E2,2.773382E2,3.104309E2,2.7823196E2,3.3379187E2,2.9791534E2,3.0265778E2,2.7497702E2,3.020521E2,3.442396E2,3.1308008E2,3.544575E2,3.8234778E2,3.459234E2,3.649721E2,3.3244336E2,3.9521408E2,3.5647644E2,4.34834E2,3.9169717E2,4.9240576E2,4.3772354E2],"split_indices":[12,0,0,12,12,12,12,12,9,12,12,17,12,12,12,0,9,12,12,1,1,0,0,0,0,17,0,0,0,0,0,0,0,0,0,0,0,0,0,0,0,0,0,0,0,0,0,0,0,0,0,0,0,0,0,0,0,0,0,0,0,0,0],"split_type":[0,0,0,0,0,0,0,0,0,0,0,0,0,0,0,0,0,0,0,0,0,0,0,0,0,0,0,0,0,0,0,0,0,0,0,0,0,0,0,0,0,0,0,0,0,0,0,0,0,0,0,0,0,0,0,0,0,0,0,0,0,0,0],"sum_hessian":[1.45351E5,9.5926E4,4.9425E4,2.8536E4,6.739E4,1.5247E4,3.4178E4,1.4732E4,1.3804E4,2.809E4,3.93E4,1.0946E4,4.301E3,2.41E4,1.0078E4,7.636E3,7.096E3,6.256E3,7.548E3,9.921E3,1.8169E4,2.1294E4,1.8006E4,5.793E3,5.153E3,3.243E3,1.058E3,1.4678E4,9.422E3,6.372E3,3.706E3,5.921E3,1.715E3,2.043E3,5.053E3,3.42E3,2.836E3,3.604E3,3.944E3,3.124E3,6.797E3,1.1815E4,6.354E3,2.0014E4,1.28E3,1.6935E4,1.071E3,7.95E2,4.998E3,4.127E3,1.026E3,2.639E3,6.04E2,2.99E2,7.59E2,1.2616E4,2.062E3,7.98E3,1.442E3,4.712E3,1.66E3,2.435E3,1.271E3],"tree_param":{"num_deleted":"0","num_feature":"21","num_nodes":"63","size_leaf_vector":"1"}},{"base_weights":[3.0817244E4,2.8019002E4,3.606279E4,2.4156904E4,3.006329E4,3.0032031E4,3.8756168E4,2.2684768E4,2.5759006E4,2.7777281E4,3.1705316E4,2.8887955E4,3.2316395E4,3.6607164E4,4.3508586E4,2.2175406E4,2.5393656E4,2.5064217E4,2.79644E4,2.594975E4,2.876281E4,3.0686102E4,3.294098E4,2.7373936E4,3.049039E4,3.1545885E4,3.5300977E4,3.5534977E4,3.8273996E4,4.1747285E4,4.6904E4,2.1219986E2,2.281366E2,2.6918256E2,2.2328154E2,2.5997168E2,2.4309734E2,2.9647528E2,2.577673E2,2.7758466E2,2.5218915E2,2.9312982E2,2.7741742E2,3.089757E2,2.7556458E2,3.3290527E2,3.04931E2,2.971876E2,2.6992255E2,2.9639648E2,3.381034E2,3.0678592E2,3.45987E2,3.7853702E2,3.424687E2,3.598194E2,3.279537E2,3.8834332E2,3.5083206E2,4.2579843E2,3.7722916E2,4.9236865E2,4.407227E2],"categories":[],"categories_nodes":[],"categories_segments":[],"categories_sizes":[],"default_left":[0,0,0,0,0,0,0,0,0,0,0,0,0,0,0,0,0,1,0,0,0,0,0,0,0,0,0,0,0,0,0,0,0,0,0,0,0,0,0,0,0,0,0,0,0,0,0,0,0,0,0,0,0,0,0,0,0,0,0,0,0,0,0],"id":4,"left_children":[1,3,5,7,9,11,13,15,17,19,21,23,25,27,29,31,33,35,37,39,41,43,45,47,49,51,53,55,57,59,61,-1,-1,-1,-1,-1,-1,-1,-1,-1,-1,-1,-1,-1,-1,-1,-1,-1,-1,-1,-1,-1,-1,-1,-1,-1,-1,-1,-1,-1,-1,-1,-1],"loss_changes":[2.1325016E12,7.476766E11,8.2011226E11,7.680819E10,2.3176466E11,3.987315E10,3.5532885E11,2.3044555E10,2.336542E10,4.5931823E10,4.440929E10,2.44292E10,1.0849092E10,4.1659924E10,6.3088624E10,8.3021005E9,1.2022317E10,7.782531E9,1.3058441E10,1.1316232E10,8.640266E9,1.2238979E10,1.2920553E10,3.9982203E9,1.3260816E10,9.910354E9,1.5532032E9,1.6773022E10,1.5461253E10,2.2420652E10,2.231894E10,0E0,0E0,0E0,0E0,0E0,0E0,0E0,0E0,0E0,0E0,0E0,0E0,0E0,0E0,0E0,0E0,0E0,0E0,0E0,0E0,0E0,0E0,0E0,0E0,0E0,0E0,0E0,0E0,0E0,0E0,0E0,0E0],"parents":[2147483647,0,0,1,1,2,2,3,3,4,4,5,5,6,6,7,7,8,8,9,9,10,10,11,11,12,12,13,13,14,14,15,15,16,16,17,17,18,18,19,19,20,20,21,21,22,22,23,23,24,24,25,25,26,26,27,27,28,28,29,29,30,30],"right_children":[2,4,6,8,10,12,14,16,18,20,22,24,26,28,30,32,34,36,38,40,42,44,46,48,50,52,54,56,58,60,62,-1,-1,-1,-1,-1,-1,-1,-1,-1,-1,-1,-1,-1,-1,-1,-1,-1,-1,-1,-1,-1,-1,-1,-1,-1,-1,-1,-1,-1,-1,-1,-1],"split_conditions":[3.3328312E4,8E0,8E0,2.9205838E4,2.8998994E4,3.7919668E4,3.8448375E4,7E0,6E0,2.6692553E4,3.116498E4,2.3955657E-1,4.292595E4,3.5966086E4,4.2128945E4,2.6934002E4,5E0,3.6112683E3,4.286456E3,5E0,5E0,2.3E1,2.2E1,1E0,6E0,4.0221357E-1,1E0,2.2E1,2.2E1,2.2E1,2E1,2.1219986E2,2.281366E2,2.6918256E2,2.2328154E2,2.5997168E2,2.4309734E2,2.9647528E2,2.577673E2,2.7758466E2,2.5218915E2,2.9312982E2,2.7741742E2,3.089757E2,2.7556458E2,3.3290527E2,3.04931E2,2.971876E2,2.6992255E2,2.9639648E2,3.381034E2,3.0678592E2,3.45987E2,3.7853702E2,3.424687E2,3.598194E2,3.279537E2,3.8834332E2,3.5083206E2,4.2579843E2,3.7722916E2,4.9236865E2,4.407227E2],"split_indices":[12,0,0,12,12,12,12,0,0,12,12,17,12,12,12,12,1,9,9,1,1,0,0,0,0,17,0,0,0,0,0,0,0,0,0,0,0,0,0,0,0,0,0,0,0,0,0,0,0,0,0,0,0,0,0,0,0,0,0,0,0,0,0],"split_type":[0,0,0,0,0,0,0,0,0,0,0,0,0,0,0,0,0,0,0,0,0,0,0,0,0,0,0,0,0,0,0,0,0,0,0,0,0,0,0,0,0,0,0,0,0,0,0,0,0,0,0,0,0,0,0,0,0,0,0,0,0,0,0],"sum_hessian":[1.45351E5,9.4791E4,5.056E4,3.2813E4,6.1978E4,1.5613E4,3.4947E4,1.7108E4,1.5705E4,2.5916E4,3.6062E4,1.0412E4,5.201E3,2.4071E4,1.0876E4,1.4408E4,2.7E3,1.1952E4,3.753E3,9.089E3,1.6827E4,1.9776E4,1.6286E4,5.363E3,5.049E3,4.143E3,1.058E3,1.4662E4,9.409E3,7.17E3,3.706E3,5.784E3,8.624E3,1.798E3,9.02E2,5.329E3,6.623E3,2.114E3,1.639E3,2.605E3,6.484E3,1.0917E4,5.91E3,1.8516E4,1.26E3,1.424E4,2.046E3,7.4E2,4.623E3,4.027E3,1.022E3,3.235E3,9.08E2,2.99E2,7.59E2,1.2595E4,2.067E3,7.994E3,1.415E3,5.933E3,1.237E3,2.023E3,1.683E3],"tree_param":{"num_deleted":"0","num_feature":"21","num_nodes":"63","size_leaf_vector":"1"}},{"base_weights":[3.050914E4,2.7786234E4,3.579319E4,2.395279E4,2.981285E4,2.9790123E4,3.8470246E4,2.2457975E4,2.554256E4,2.7810307E4,3.1699832E4,2.8879555E4,3.2570408E4,3.6434156E4,4.3335145E4,2.1953684E4,2.5139902E4,2.5084773E4,2.8856621E4,2.5838842E4,2.8788518E4,3.0724723E4,3.2800066E4,2.7457734E4,3.054095E4,3.1726777E4,3.5265453E4,3.5325355E4,3.815757E4,4.152512E4,4.643521E4,2.1082544E2,2.2640953E2,2.6649222E2,2.210512E2,2.6059058E2,2.4237163E2,3.0601712E2,2.6274203E2,2.7574008E2,2.5063771E2,2.9268497E2,2.778125E2,3.1045776E2,2.8576523E2,3.315396E2,3.0346616E2,2.6488065E2,2.8399756E2,2.970507E2,3.3869775E2,3.104509E2,3.514022E2,3.6842468E2,3.346021E2,3.5770938E2,3.2583118E2,3.6891928E2,3.9673682E2,4.2622952E2,3.8385086E2,4.826494E2,4.2894595E2],"categories":[],"categories_nodes":[],"categories_segments":[],"categories_sizes":[],"default_left":[0,0,0,0,0,0,0,0,0,0,0,0,0,0,0,0,0,1,0,0,0,0,0,0,0,0,0,0,0,0,0,0,0,0,0,0,0,0,0,0,0,0,0,0,0,0,0,0,0,0,0,0,0,0,0,0,0,0,0,0,0,0,0],"id":5,"left_children":[1,3,5,7,9,11,13,15,17,19,21,23,25,27,29,31,33,35,37,39,41,43,45,47,49,51,53,55,57,59,61,-1,-1,-1,-1,-1,-1,-1,-1,-1,-1,-1,-1,-1,-1,-1,-1,-1,-1,-1,-1,-1,-1,-1,-1,-1,-1,-1,-1,-1,-1,-1,-1],"loss_changes":[2.0903237E12,7.445309E11,7.931555E11,7.82762E10,2.362274E11,3.7662753E10,3.3697877E11,2.25879E10,2.3660069E10,5.797996E10,3.364461E10,2.6315063E10,7.416316E9,4.4707086E10,5.4626615E10,8.1495327E9,1.1782717E10,1.1037311E10,7.9565947E9,1.2903252E10,9.020899E9,1.0933502E10,1.215719E10,4.9146757E9,1.3719044E10,5.584978E9,1.2894863E9,1.6770925E10,1.6617832E10,2.0332937E10,2.1945123E10,0E0,0E0,0E0,0E0,0E0,0E0,0E0,0E0,0E0,0E0,0E0,0E0,0E0,0E0,0E0,0E0,0E0,0E0,0E0,0E0,0E0,0E0,0E0,0E0,0E0,0E0,0E0,0E0,0E0,0E0,0E0,0E0],"parents":[2147483647,0,0,1,1,2,2,3,3,4,4,5,5,6,6,7,7,8,8,9,9,10,10,11,11,12,12,13,13,14,14,15,15,16,16,17,17,18,18,19,19,20,20,21,21,22,22,23,23,24,24,25,25,26,26,27,27,28,28,29,29,30,30],"right_children":[2,4,6,8,10,12,14,16,18,20,22,24,26,28,30,32,34,36,38,40,42,44,46,48,50,52,54,56,58,60,62,-1,-1,-1,-1,-1,-1,-1,-1,-1,-1,-1,-1,-1,-1,-1,-1,-1,-1,-1,-1,-1,-1,-1,-1,-1,-1,-1,-1,-1,-1,-1,-1],"split_conditions":[3.344383E4,8E0,8E0,2.9205838E4,2.9486059E4,3.9046953E4,3.8737906E4,7E0,7E0,2.6875852E4,3.1397928E4,2.6037648E-1,4.335497E4,3.613216E4,4.2128945E4,2.7111229E4,5E0,3.6812483E3,4.478246E3,5E0,5E0,2.2E1,2.2E1,3.5886145E4,6E0,1.5526626E-1,2E0,2.2E1,5.7551665E3,2.1E1,2.1E1,2.1082544E2,2.2640953E2,2.6649222E2,2.210512E2,2.6059058E2,2.4237163E2,3.0601712E2,2.6274203E2,2.7574008E2,2.5063771E2,2.9268497E2,2.778125E2,3.1045776E2,2.8576523E2,3.315396E2,3.0346616E2,2.6488065E2,2.8399756E2,2.970507E2,3.3869775E2,3.104509E2,3.514022E2,3.6842468E2,3.346021E2,3.5770938E2,3.2583118E2,3.6891928E2,3.9673682E2,4.2622952E2,3.8385086E2,4.826494E2,4.2894595E2],"split_indices":[12,0,0,12,12,12,12,0,0,12,12,17,12,12,12,12,1,9,9,1,1,0,0,12,0,17,0,0,9,0,0,0,0,0,0,0,0,0,0,0,0,0,0,0,0,0,0,0,0,0,0,0,0,0,0,0,0,0,0,0,0,0,0],"split_type":[0,0,0,0,0,0,0,0,0,0,0,0,0,0,0,0,0,0,0,0,0,0,0,0,0,0,0,0,0,0,0,0,0,0,0,0,0,0,0,0,0,0,0,0,0,0,0,0,0,0,0,0,0,0,0,0,0,0,0,0,0,0,0],"sum_hessian":[1.45351E5,9.5926E4,4.9425E4,3.3179E4,6.2747E4,1.5247E4,3.4178E4,1.7108E4,1.6071E4,3.0449E4,3.2298E4,1.1494E4,3.753E3,2.41E4,1.0078E4,1.4408E4,2.7E3,1.4128E4,1.943E3,1.0107E4,2.0342E4,1.7138E4,1.516E4,6.203E3,5.291E3,2.868E3,8.85E2,1.4678E4,9.422E3,6.372E3,3.706E3,6.368E3,8.04E3,1.798E3,9.02E2,6.559E3,7.569E3,1.153E3,7.9E2,3.11E3,6.997E3,1.3758E4,6.584E3,1.4898E4,2.24E3,1.3238E4,1.922E3,3.071E3,3.132E3,4.237E3,1.054E3,2.399E3,4.69E2,4.62E2,4.23E2,1.2616E4,2.062E3,5.149E3,4.273E3,4.712E3,1.66E3,2.435E3,1.271E3],"tree_param":{"num_deleted":"0","num_feature":"21","num_nodes":"63","size_leaf_vector":"1"}},{"base_weights":[3.0204117E4,2.7461354E4,3.5345668E4,2.3676096E4,2.9464969E4,2.9435156E4,3.7985344E4,2.2215482E4,2.5226945E4,2.722336E4,3.1075104E4,2.8311951E4,3.167785E4,3.587871E4,4.264406E4,2.1715543E4,2.4866053E4,2.4542219E4,2.7404504E4,2.5208082E4,2.8082635E4,3.0008725E4,3.2210455E4,2.6828422E4,2.9882115E4,3.0922701E4,3.4602934E4,3.4848426E4,3.7566992E4,4.0918215E4,4.5971105E4,2.0797032E2,2.2341945E2,2.6359793E2,2.1854063E2,2.545112E2,2.3804736E2,2.904854E2,2.5252255E2,2.7061804E2,2.4558957E2,2.8673126E2,2.7053757E2,3.021517E2,2.692513E2,3.2556305E2,2.9818967E2,2.9150375E2,2.6450525E2,2.9048044E2,3.3137003E2,3.0069656E2,3.392548E2,3.7116495E2,3.3565207E2,3.5145285E2,3.161451E2,3.2635684E2,3.8303098E2,4.197765E2,3.785728E2,4.8262332E2,4.3189978E2],"categories":[],"categories_nodes":[],"categories_segments":[],"categories_sizes":[],"default_left":[0,0,0,0,0,0,0,0,0,0,0,0,0,0,0,0,0,1,0,0,0,0,0,0,0,0,0,0,0,0,0,0,0,0,0,0,0,0,0,0,0,0,0,0,0,0,0,0,0,0,0,0,0,0,0,0,0,0,0,0,0,0,0],"id":6,"left_children":[1,3,5,7,9,11,13,15,17,19,21,23,25,27,29,31,33,35,37,39,41,43,45,47,49,51,53,55,57,59,61,-1,-1,-1,-1,-1,-1,-1,-1,-1,-1,-1,-1,-1,-1,-1,-1,-1,-1,-1,-1,-1,-1,-1,-1,-1,-1,-1,-1,-1,-1,-1,-1],"loss_changes":[2.0487833E12,7.182242E11,7.8772804E11,7.376732E10,2.2285595E11,3.8434505E10,3.414583E11,2.1863858E10,2.30477E10,4.4170215E10,4.2695918E10,2.3454548E10,1.0420224E10,4.0561017E10,6.057204E10,7.723811E9,1.1463557E10,7.513047E9,1.2701925E10,8.669626E9,1.0258219E10,1.1033117E10,1.3465813E10,3.935568E9,1.2747014E10,9.594733E9,1.516503E9,1.3254001E10,3.1819039E10,2.1665677E10,2.1537751E10,0E0,0E0,0E0,0E0,0E0,0E0,0E0,0E0,0E0,0E0,0E0,0E0,0E0,0E0,0E0,0E0,0E0,0E0,0E0,0E0,0E0,0E0,0E0,0E0,0E0,0E0,0E0,0E0,0E0,0E0,0E0,0E0],"parents":[2147483647,0,0,1,1,2,2,3,3,4,4,5,5,6,6,7,7,8,8,9,9,10,10,11,11,12,12,13,13,14,14,15,15,16,16,17,17,18,18,19,19,20,20,21,21,22,22,23,23,24,24,25,25,26,26,27,27,28,28,29,29,30,30],"right_children":[2,4,6,8,10,12,14,16,18,20,22,24,26,28,30,32,34,36,38,40,42,44,46,48,50,52,54,56,58,60,62,-1,-1,-1,-1,-1,-1,-1,-1,-1,-1,-1,-1,-1,-1,-1,-1,-1,-1,-1,-1,-1,-1,-1,-1,-1,-1,-1,-1,-1,-1,-1,-1],"split_conditions":[3.3328312E4,8E0,8E0,2.9164773E4,2.8998994E4,3.7919668E4,3.8448375E4,7E0,6E0,2.6423195E4,3.1020332E4,2.3955657E-1,4.292595E4,5.4397695E3,4.2128945E4,2.6934002E4,5E0,3.6112683E3,4.286456E3,5E0,5E0,2.3E1,2.2E1,1E0,6E0,4.0221357E-1,1E0,2.3E1,1E1,2.1E1,2E1,2.0797032E2,2.2341945E2,2.6359793E2,2.1854063E2,2.545112E2,2.3804736E2,2.904854E2,2.5252255E2,2.7061804E2,2.4558957E2,2.8673126E2,2.7053757E2,3.021517E2,2.692513E2,3.2556305E2,2.9818967E2,2.9150375E2,2.6450525E2,2.9048044E2,3.3137003E2,3.0069656E2,3.392548E2,3.7116495E2,3.3565207E2,3.5145285E2,3.161451E2,3.2635684E2,3.8303098E2,4.197765E2,3.785728E2,4.8262332E2,4.3189978E2],"split_indices":[12,0,0,12,12,12,12,0,0,12,12,17,12,9,12,12,1,9,9,1,1,0,0,0,0,17,0,0,0,0,0,0,0,0,0,0,0,0,0,0,0,0,0,0,0,0,0,0,0,0,0,0,0,0,0,0,0,0,0,0,0,0,0],"split_type":[0,0,0,0,0,0,0,0,0,0,0,0,0,0,0,0,0,0,0,0,0,0,0,0,0,0,0,0,0,0,0,0,0,0,0,0,0,0,0,0,0,0,0,0,0,0,0,0,0,0,0,0,0,0,0,0,0,0,0,0,0,0,0],"sum_hessian":[1.45351E5,9.4791E4,5.056E4,3.2813E4,6.1978E4,1.5613E4,3.4947E4,1.6906E4,1.5907E4,2.5916E4,3.6062E4,1.0412E4,5.201E3,2.4071E4,1.0876E4,1.4231E4,2.675E3,1.2111E4,3.796E3,7.756E3,1.816E4,1.861E4,1.7452E4,5.363E3,5.049E3,4.143E3,1.058E3,1.4962E4,9.109E3,7.17E3,3.706E3,5.784E3,8.447E3,1.783E3,8.92E2,5.41E3,6.701E3,2.145E3,1.651E3,2.001E3,5.755E3,1.1521E4,6.639E3,1.7434E4,1.176E3,1.5236E4,2.216E3,7.4E2,4.623E3,4.027E3,1.022E3,3.235E3,9.08E2,2.99E2,7.59E2,1.3695E4,1.267E3,1.189E3,7.92E3,5.317E3,1.853E3,2.023E3,1.683E3],"tree_param":{"num_deleted":"0","num_feature":"21","num_nodes":"63","size_leaf_vector":"1"}},{"base_weights":[2.9902145E4,2.7302408E4,3.5219797E4,2.3527379E4,2.9294111E4,2.929203E4,3.7858324E4,2.2010977E4,2.5087357E4,2.7398232E4,3.1288607E4,2.8386047E4,3.192712E4,3.593823E4,4.273877E4,2.1516652E4,2.4639898E4,2.4407639E4,2.724566E4,2.5322406E4,2.8322828E4,3.0399928E4,3.2427027E4,2.6987506E4,3.0044578E4,3.1100469E4,3.45679E4,3.484096E4,3.772577E4,3.9474113E4,4.43428E4,2.0744414E2,2.2264177E2,2.6119266E2,2.1665343E2,2.3530661E2,2.522334E2,2.880223E2,2.4976013E2,2.7022083E2,2.4563187E2,2.8781482E2,2.7332532E2,3.0728195E2,2.823206E2,3.2772412E2,3.0018567E2,2.933758E2,2.6600882E2,2.9225717E2,3.335773E2,3.0431363E2,3.4451004E2,3.611997E2,3.2791537E2,3.5286734E2,3.212218E2,3.6373428E2,3.9216547E2,4.0254202E2,3.6809695E2,4.528044E2,4.0006598E2],"categories":[],"categories_nodes":[],"categories_segments":[],"categories_sizes":[],"default_left":[0,0,0,0,0,0,0,0,0,0,0,0,0,0,0,0,0,0,0,0,0,0,0,0,0,0,0,0,0,0,0,0,0,0,0,0,0,0,0,0,0,0,0,0,0,0,0,0,0,0,0,0,0,0,0,0,0,0,0,0,0,0,0],"id":7,"left_children":[1,3,5,7,9,11,13,15,17,19,21,23,25,27,29,31,33,35,37,39,41,43,45,47,49,51,53,55,57,59,61,-1,-1,-1,-1,-1,-1,-1,-1,-1,-1,-1,-1,-1,-1,-1,-1,-1,-1,-1,-1,-1,-1,-1,-1,-1,-1,-1,-1,-1,-1,-1,-1],"loss_changes":[2.0084592E12,7.333573E11,7.453278E11,7.922201E10,2.407866E11,3.419721E10,3.0789547E11,2.1703426E10,2.371145E10,6.217846E10,3.0513562E10,2.4590156E10,7.119831E9,4.5181043E10,4.704646E10,7.8559314E9,1.131964E10,8.452571E9,1.3310099E10,1.2380013E10,9.50639E9,1.1587813E10,1.0358882E10,4.6265795E9,1.2592873E10,5.383389E9,1.2582912E9,1.6682844E10,1.6725836E10,4.9183457E9,2.3558357E10,0E0,0E0,0E0,0E0,0E0,0E0,0E0,0E0,0E0,0E0,0E0,0E0,0E0,0E0,0E0,0E0,0E0,0E0,0E0,0E0,0E0,0E0,0E0,0E0,0E0,0E0,0E0,0E0,0E0,0E0,0E0,0E0],"parents":[2147483647,0,0,1,1,2,2,3,3,4,4,5,5,6,6,7,7,8,8,9,9,10,10,11,11,12,12,13,13,14,14,15,15,16,16,17,17,18,18,19,19,20,20,21,21,22,22,23,23,24,24,25,25,26,26,27,27,28,28,29,29,30,30],"right_children":[2,4,6,8,10,12,14,16,18,20,22,24,26,28,30,32,34,36,38,40,42,44,46,48,50,52,54,56,58,60,62,-1,-1,-1,-1,-1,-1,-1,-1,-1,-1,-1,-1,-1,-1,-1,-1,-1,-1,-1,-1,-1,-1,-1,-1,-1,-1,-1,-1,-1,-1,-1,-1],"split_conditions":[3.3632348E4,8E0,8E0,2.9205838E4,2.9719262E4,3.9046953E4,3.9046953E4,7E0,6E0,2.6875852E4,3.1737832E4,2.7281126E-1,4.335497E4,3.638607E4,6.694499E3,2.7323107E4,5E0,3.1119736E4,4.478246E3,5E0,5E0,2.2E1,2.2E1,1E0,6E0,1.5526626E-1,2E0,2.2E1,5.7551665E3,2.2E1,2.2E1,2.0744414E2,2.2264177E2,2.6119266E2,2.1665343E2,2.3530661E2,2.522334E2,2.880223E2,2.4976013E2,2.7022083E2,2.4563187E2,2.8781482E2,2.7332532E2,3.0728195E2,2.823206E2,3.2772412E2,3.0018567E2,2.933758E2,2.6600882E2,2.9225717E2,3.335773E2,3.0431363E2,3.4451004E2,3.611997E2,3.2791537E2,3.5286734E2,3.212218E2,3.6373428E2,3.9216547E2,4.0254202E2,3.6809695E2,4.528044E2,4.0006598E2],"split_indices":[12,0,0,12,12,12,12,0,0,12,12,17,12,12,9,12,1,12,9,1,1,0,0,0,0,17,0,0,9,0,0,0,0,0,0,0,0,0,0,0,0,0,0,0,0,0,0,0,0,0,0,0,0,0,0,0,0,0,0,0,0,0,0],"split_type":[0,0,0,0,0,0,0,0,0,0,0,0,0,0,0,0,0,0,0,0,0,0,0,0,0,0,0,0,0,0,0,0,0,0,0,0,0,0,0,0,0,0,0,0,0,0,0,0,0,0,0,0,0,0,0,0,0,0,0,0,0,0,0],"sum_hessian":[1.45351E5,9.7628E4,4.7723E4,3.3723E4,6.3905E4,1.4703E4,3.302E4,1.7108E4,1.6615E4,3.277E4,3.1135E4,1.095E4,3.753E3,2.3703E4,9.317E3,1.4408E4,2.7E3,1.2645E4,3.97E3,1.0107E4,2.2663E4,1.7501E4,1.3634E4,5.95E3,5E3,2.868E3,8.85E2,1.47E4,9.003E3,3.078E3,6.239E3,7.101E3,7.307E3,1.798E3,9.02E2,6.108E3,6.537E3,2.348E3,1.622E3,3.11E3,6.997E3,1.547E4,7.193E3,1.5188E4,2.313E3,1.1913E4,1.721E3,8.3E2,5.12E3,4.017E3,9.83E2,2.399E3,4.69E2,4.62E2,4.23E2,1.2619E4,2.081E3,4.734E3,4.269E3,2.37E3,7.08E2,5.122E3,1.117E3],"tree_param":{"num_deleted":"0","num_feature":"21","num_nodes":"63","size_leaf_vector":"1"}},{"base_weights":[2.9603191E4,2.696071E4,3.473117E4,2.3241209E4,2.8927086E4,2.8906547E4,3.732865E4,2.179092E4,2.4783625E4,2.698269E4,3.0759277E4,2.7851436E4,3.117659E4,3.5352375E4,4.205063E4,2.1301516E4,2.4393676E4,2.4336377E4,2.8021479E4,2.5069234E4,2.7932117E4,2.9812328E4,3.1827744E4,2.6402193E4,2.9427127E4,3.039847E4,3.391869E4,3.42688E4,3.7036594E4,4.0569746E4,4.5669184E4,2.059158E2,2.2098871E2,2.5858218E2,2.1448929E2,2.5290828E2,2.3506055E2,2.9718842E2,2.5509746E2,2.6751947E2,2.4317592E2,2.8398038E2,2.6954358E2,3.0124957E2,2.7720557E2,3.2171274E2,2.944614E2,2.8696805E2,2.603117E2,2.8613998E2,3.2641223E2,2.9594446E2,3.3474533E2,3.6393695E2,3.2897086E2,3.4703293E2,3.15949E2,3.7609988E2,3.3839566E2,4.168113E2,3.744142E2,4.814952E2,4.2909937E2],"categories":[],"categories_nodes":[],"categories_segments":[],"categories_sizes":[],"default_left":[0,0,0,0,0,0,0,0,0,0,0,0,0,0,0,0,0,1,0,0,0,0,0,0,0,0,0,0,0,0,0,0,0,0,0,0,0,0,0,0,0,0,0,0,0,0,0,0,0,0,0,0,0,0,0,0,0,0,0,0,0,0,0],"id":8,"left_children":[1,3,5,7,9,11,13,15,17,19,21,23,25,27,29,31,33,35,37,39,41,43,45,47,49,51,53,55,57,59,61,-1,-1,-1,-1,-1,-1,-1,-1,-1,-1,-1,-1,-1,-1,-1,-1,-1,-1,-1,-1,-1,-1,-1,-1,-1,-1,-1,-1,-1,-1,-1,-1],"loss_changes":[1.9686553E12,7.009311E11,7.4670775E11,7.3683436E10,2.2271335E11,3.5652633E10,3.1747106E11,2.127351E10,2.259157E10,5.4620324E10,3.172991E10,2.3015195E10,9.274655E9,4.271479E10,5.215617E10,7.7012664E9,1.1094065E10,1.06032E10,7.529824E9,1.2134121E10,8.5008056E9,1.0372514E10,1.1456741E10,3.8818284E9,1.2089033E10,8.3382764E9,1.4804582E9,1.595723E10,1.600127E10,2.3336059E10,1.791125E10,0E0,0E0,0E0,0E0,0E0,0E0,0E0,0E0,0E0,0E0,0E0,0E0,0E0,0E0,0E0,0E0,0E0,0E0,0E0,0E0,0E0,0E0,0E0,0E0,0E0,0E0,0E0,0E0,0E0,0E0,0E0,0E0],"parents":[2147483647,0,0,1,1,2,2,3,3,4,4,5,5,6,6,7,7,8,8,9,9,10,10,11,11,12,12,13,13,14,14,15,15,16,16,17,17,18,18,19,19,20,20,21,21,22,22,23,23,24,24,25,25,26,26,27,27,28,28,29,29,30,30],"right_children":[2,4,6,8,10,12,14,16,18,20,22,24,26,28,30,32,34,36,38,40,42,44,46,48,50,52,54,56,58,60,62,-1,-1,-1,-1,-1,-1,-1,-1,-1,-1,-1,-1,-1,-1,-1,-1,-1,-1,-1,-1,-1,-1,-1,-1,-1,-1,-1,-1,-1,-1,-1,-1],"split_conditions":[3.344383E4,8E0,8E0,2.9205838E4,2.9486059E4,3.817638E4,3.8737906E4,7E0,7E0,2.6875852E4,3.1397928E4,2.3955657E-1,4.292595E4,3.613216E4,4.292595E4,2.7478791E4,5E0,3.6812483E3,4.478246E3,5E0,5E0,2.2E1,2.2E1,1E0,6E0,4.0221357E-1,1E0,2.2E1,2.2E1,2.1E1,2E1,2.059158E2,2.2098871E2,2.5858218E2,2.1448929E2,2.5290828E2,2.3506055E2,2.9718842E2,2.5509746E2,2.6751947E2,2.4317592E2,2.8398038E2,2.6954358E2,3.0124957E2,2.7720557E2,3.2171274E2,2.944614E2,2.8696805E2,2.603117E2,2.8613998E2,3.2641223E2,2.9594446E2,3.3474533E2,3.6393695E2,3.2897086E2,3.4703293E2,3.15949E2,3.7609988E2,3.3839566E2,4.168113E2,3.744142E2,4.814952E2,4.2909937E2],"split_indices":[12,0,0,12,12,12,12,0,0,12,12,17,12,12,12,12,1,9,9,1,1,0,0,0,0,17,0,0,0,0,0,0,0,0,0,0,0,0,0,0,0,0,0,0,0,0,0,0,0,0,0,0,0,0,0,0,0,0,0,0,0,0,0],"split_type":[0,0,0,0,0,0,0,0,0,0,0,0,0,0,0,0,0,0,0,0,0,0,0,0,0,0,0,0,0,0,0,0,0,0,0,0,0,0,0,0,0,0,0,0,0,0,0,0,0,0,0,0,0,0,0,0,0,0,0,0,0,0,0],"sum_hessian":[1.45351E5,9.5926E4,4.9425E4,3.3179E4,6.2747E4,1.5247E4,3.4178E4,1.7108E4,1.6071E4,3.0449E4,3.2298E4,1.0418E4,4.829E3,2.41E4,1.0078E4,1.4408E4,2.7E3,1.4128E4,1.943E3,1.0107E4,2.0342E4,1.7138E4,1.516E4,5.436E3,4.982E3,3.771E3,1.058E3,1.4678E4,9.422E3,7.16E3,2.918E3,7.636E3,6.772E3,1.798E3,9.02E2,6.559E3,7.569E3,1.153E3,7.9E2,3.11E3,6.997E3,1.3758E4,6.584E3,1.4898E4,2.24E3,1.3238E4,1.922E3,7.46E2,4.69E3,3.984E3,9.98E2,2.998E3,7.73E2,2.99E2,7.59E2,1.2616E4,2.062E3,7.98E3,1.442E3,5.274E3,1.886E3,1.528E3,1.39E3],"tree_param":{"num_deleted":"0","num_feature":"21","num_nodes":"63","size_leaf_vector":"1"}},{"base_weights":[2.9307227E4,2.6803814E4,3.461408E4,2.3095094E4,2.876018E4,2.8777693E4,3.7201875E4,2.1605865E4,2.4659043E4,2.689935E4,3.07694E4,2.7991646E4,3.1669318E4,3.535442E4,4.2036668E4,2.1120096E4,2.4200498E4,2.399781E4,2.676334E4,2.4818592E4,2.7794416E4,2.9842242E4,3.1843572E4,2.6680227E4,2.9653041E4,3.0971291E4,3.4700258E4,3.4170934E4,3.7025293E4,3.8764652E4,4.3574457E4,2.0385689E2,2.1907405E2,2.5647806E2,2.1260349E2,2.3259763E2,2.4962794E2,2.8425507E2,2.4646893E2,2.6484512E2,2.4074449E2,2.8241504E2,2.681712E2,3.016535E2,2.7711533E2,3.218555E2,2.9459113E2,2.904545E2,2.6281012E2,2.8846964E2,3.2968768E2,3.4848352E2,3.0464313E2,3.7120303E2,3.3494382E2,3.3333173E2,3.5361105E2,3.196293E2,3.7716837E2,3.954155E2,3.6161176E2,4.4514203E2,3.926969E2],"categories":[],"categories_nodes":[],"categories_segments":[],"categories_sizes":[],"default_left":[0,0,0,0,0,0,0,0,0,0,0,0,0,0,0,0,0,0,0,0,0,0,0,0,0,0,0,0,0,0,0,0,0,0,0,0,0,0,0,0,0,0,0,0,0,0,0,0,0,0,0,0,0,0,0,0,0,0,0,0,0,0,0],"id":9,"left_children":[1,3,5,7,9,11,13,15,17,19,21,23,25,27,29,31,33,35,37,39,41,43,45,47,49,51,53,55,57,59,61,-1,-1,-1,-1,-1,-1,-1,-1,-1,-1,-1,-1,-1,-1,-1,-1,-1,-1,-1,-1,-1,-1,-1,-1,-1,-1,-1,-1,-1,-1,-1,-1],"loss_changes":[1.9301096E12,7.159509E11,7.025375E11,7.891793E10,2.4090824E11,3.1650218E10,2.8676876E11,2.1522547E10,2.2500344E10,6.183872E10,3.000605E10,2.3751295E10,5.3820785E9,4.4920996E10,4.3178263E10,8.071938E9,1.1156849E10,8.439464E9,1.3258195E10,1.1892949E10,9.498001E9,1.0659824E10,1.0781458E10,5.189927E9,1.2305302E10,3.8325453E9,3.99573E8,1.2465471E10,3.2654754E10,4.354736E9,2.2758294E10,0E0,0E0,0E0,0E0,0E0,0E0,0E0,0E0,0E0,0E0,0E0,0E0,0E0,0E0,0E0,0E0,0E0,0E0,0E0,0E0,0E0,0E0,0E0,0E0,0E0,0E0,0E0,0E0,0E0,0E0,0E0,0E0],"parents":[2147483647,0,0,1,1,2,2,3,3,4,4,5,5,6,6,7,7,8,8,9,9,10,10,11,11,12,12,13,13,14,14,15,15,16,16,17,17,18,18,19,19,20,20,21,21,22,22,23,23,24,24,25,25,26,26,27,27,28,28,29,29,30,30],"right_children":[2,4,6,8,10,12,14,16,18,20,22,24,26,28,30,32,34,36,38,40,42,44,46,48,50,52,54,56,58,60,62,-1,-1,-1,-1,-1,-1,-1,-1,-1,-1,-1,-1,-1,-1,-1,-1,-1,-1,-1,-1,-1,-1,-1,-1,-1,-1,-1,-1,-1,-1,-1,-1],"split_conditions":[3.375929E4,8E0,8E0,2.928725E4,2.980442E4,3.973352E4,3.921688E4,7E0,6E0,2.6875852E4,3.1737832E4,2.7281126E-1,4.4435812E4,5.4397695E3,6.694499E3,2.7478791E4,5E0,3.159936E4,4.286456E3,5E0,5E0,2.2E1,2.2E1,1E0,6E0,5.3E1,1E0,3.5966086E4,1E1,2.2E1,2.2E1,2.0385689E2,2.1907405E2,2.5647806E2,2.1260349E2,2.3259763E2,2.4962794E2,2.8425507E2,2.4646893E2,2.6484512E2,2.4074449E2,2.8241504E2,2.681712E2,3.016535E2,2.7711533E2,3.218555E2,2.9459113E2,2.904545E2,2.6281012E2,2.8846964E2,3.2968768E2,3.4848352E2,3.0464313E2,3.7120303E2,3.3494382E2,3.3333173E2,3.5361105E2,3.196293E2,3.7716837E2,3.954155E2,3.6161176E2,4.4514203E2,3.926969E2],"split_indices":[12,0,0,12,12,12,12,0,0,12,12,17,12,9,9,12,1,12,9,1,1,0,0,0,0,5,0,12,0,0,0,0,0,0,0,0,0,0,0,0,0,0,0,0,0,0,0,0,0,0,0,0,0,0,0,0,0,0,0,0,0,0,0],"split_type":[0,0,0,0,0,0,0,0,0,0,0,0,0,0,0,0,0,0,0,0,0,0,0,0,0,0,0,0,0,0,0,0,0,0,0,0,0,0,0,0,0,0,0,0,0,0,0,0,0,0,0,0,0,0,0,0,0,0,0,0,0,0,0],"sum_hessian":[1.45351E5,9.8766E4,4.6585E4,3.4112E4,6.4654E4,1.4314E4,3.2271E4,1.7481E4,1.6631E4,3.3574E4,3.108E4,1.1263E4,3.051E3,2.3355E4,8.916E3,1.4732E4,2.749E3,1.2664E4,3.967E3,1.0107E4,2.3467E4,1.6697E4,1.4383E4,6.304E3,4.959E3,2.489E3,5.62E2,1.3684E4,9.671E3,2.859E3,6.057E3,7.636E3,7.096E3,1.837E3,9.12E2,7.19E3,5.474E3,2.215E3,1.752E3,3.11E3,6.997E3,1.6082E4,7.385E3,1.4487E4,2.21E3,1.2568E4,1.815E3,9E2,5.404E3,3.997E3,9.62E2,2.8E2,2.209E3,1.77E2,3.85E2,8.048E3,5.636E3,1.168E3,8.503E3,2.191E3,6.68E2,4.964E3,1.093E3],"tree_param":{"num_deleted":"0","num_feature":"21","num_nodes":"63","size_leaf_vector":"1"}},{"base_weights":[2.901422E4,2.6217447E4,3.3670926E4,2.2195582E4,2.7929678E4,2.8085594E4,3.6166973E4,2.0706547E4,2.353888E4,2.54446E4,2.925651E4,2.7029348E4,3.0445273E4,3.401931E4,4.0533746E4,1.9716604E4,2.1163201E4,2.4500117E4,2.2750494E4,2.3464092E4,2.6201016E4,2.8309115E4,3.0446752E4,2.5618486E4,2.8500639E4,2.9720623E4,3.325217E4,3.290623E4,3.5372613E4,3.896699E4,4.4205773E4,2.0134807E2,1.9087741E2,2.0857512E2,2.262185E2,2.3565866E2,2.5383617E2,2.4572841E2,2.243439E2,2.5265251E2,2.2962616E2,2.6907477E2,2.5228952E2,2.8472903E2,2.546258E2,3.065029E2,2.7260226E2,2.7858453E2,2.526251E2,2.7704318E2,3.1615543E2,2.8895135E2,3.262663E2,3.4766586E2,3.1651508E2,3.331236E2,3.0368237E2,3.4300992E2,3.6744788E2,3.9959024E2,3.6057605E2,4.5964508E2,4.0802878E2],"categories":[],"categories_nodes":[],"categories_segments":[],"categories_sizes":[],"default_left":[0,0,0,0,0,0,0,0,1,0,0,0,0,0,0,0,0,0,0,0,0,0,0,0,0,0,0,0,0,0,0,0,0,0,0,0,0,0,0,0,0,0,0,0,0,0,0,0,0,0,0,0,0,0,0,0,0,0,0,0,0,0,0],"id":10,"left_children":[1,3,5,7,9,11,13,15,17,19,21,23,25,27,29,31,33,35,37,39,41,43,45,47,49,51,53,55,57,59,61,-1,-1,-1,-1,-1,-1,-1,-1,-1,-1,-1,-1,-1,-1,-1,-1,-1,-1,-1,-1,-1,-1,-1,-1,-1,-1,-1,-1,-1,-1,-1,-1],"loss_changes":[1.8921428E12,6.2477514E11,7.5929905E11,5.3764686E10,2.092706E11,4.117129E10,3.5208246E11,5.4017393E9,1.0243539E10,3.2609665E10,4.595699E10,2.3449305E10,9.592373E9,3.6901487E10,6.97345E10,6.882591E8,3.449815E9,4.6918533E9,3.9672873E9,4.964483E9,1.0336862E10,1.0057941E10,1.108974E10,4.045144E9,1.3245088E10,8.998093E9,1.4665646E9,1.3294895E10,1.5489565E10,2.37104E10,2.0309869E10,0E0,0E0,0E0,0E0,0E0,0E0,0E0,0E0,0E0,0E0,0E0,0E0,0E0,0E0,0E0,0E0,0E0,0E0,0E0,0E0,0E0,0E0,0E0,0E0,0E0,0E0,0E0,0E0,0E0,0E0,0E0,0E0],"parents":[2147483647,0,0,1,1,2,2,3,3,4,4,5,5,6,6,7,7,8,8,9,9,10,10,11,11,12,12,13,13,14,14,15,15,16,16,17,17,18,18,19,19,20,20,21,21,22,22,23,23,24,24,25,25,26,26,27,27,28,28,29,29,30,30],"right_children":[2,4,6,8,10,12,14,16,18,20,22,24,26,28,30,32,34,36,38,40,42,44,46,48,50,52,54,56,58,60,62,-1,-1,-1,-1,-1,-1,-1,-1,-1,-1,-1,-1,-1,-1,-1,-1,-1,-1,-1,-1,-1,-1,-1,-1,-1,-1,-1,-1,-1,-1,-1,-1],"split_conditions":[3.293375E4,7E0,8E0,2.8831877E4,2.830444E4,3.7919668E4,3.7919668E4,2.6355264E4,3.6112683E3,2.5865459E4,3.0698201E4,2.3955657E-1,4.292595E4,3.5271176E4,4.2128945E4,5E0,6E0,3.0567135E4,1E0,4E0,5E0,2.3E1,2.3E1,1E0,6E0,4.0221357E-1,2E0,2.2E1,5.4397695E3,2.1E1,2.1E1,2.0134807E2,1.9087741E2,2.0857512E2,2.262185E2,2.3565866E2,2.5383617E2,2.4572841E2,2.243439E2,2.5265251E2,2.2962616E2,2.6907477E2,2.5228952E2,2.8472903E2,2.546258E2,3.065029E2,2.7260226E2,2.7858453E2,2.526251E2,2.7704318E2,3.1615543E2,2.8895135E2,3.262663E2,3.4766586E2,3.1651508E2,3.331236E2,3.0368237E2,3.4300992E2,3.6744788E2,3.9959024E2,3.6057605E2,4.5964508E2,4.0802878E2],"split_indices":[12,0,0,12,12,12,12,12,9,12,12,17,12,12,12,1,0,12,0,1,1,0,0,0,0,17,0,0,9,0,0,0,0,0,0,0,0,0,0,0,0,0,0,0,0,0,0,0,0,0,0,0,0,0,0,0,0,0,0,0,0,0,0],"split_type":[0,0,0,0,0,0,0,0,0,0,0,0,0,0,0,0,0,0,0,0,0,0,0,0,0,0,0,0,0,0,0,0,0,0,0,0,0,0,0,0,0,0,0,0,0,0,0,0,0,0,0,0,0,0,0,0,0,0,0,0,0,0,0],"sum_hessian":[1.45351E5,9.0815E4,5.4536E4,2.7122E4,6.3693E4,1.6848E4,3.7688E4,1.2871E4,1.4251E4,2.2177E4,4.1516E4,1.1647E4,5.201E3,2.5269E4,1.2419E4,4.077E3,8.794E3,6.408E3,7.843E3,6.138E3,1.6039E4,2.313E4,1.8386E4,5.955E3,5.692E3,4.143E3,1.058E3,1.3879E4,1.139E4,8.713E3,3.706E3,2.43E3,1.647E3,7.283E3,1.511E3,3.128E3,3.28E3,1.148E3,6.695E3,1.326E3,4.812E3,9.273E3,6.766E3,2.1863E4,1.267E3,1.7274E4,1.112E3,8.06E2,5.149E3,4.541E3,1.151E3,3.235E3,9.08E2,5.33E2,5.25E2,1.1954E4,1.925E3,6.41E3,4.98E3,6.488E3,2.225E3,2.435E3,1.271E3],"tree_param":{"num_deleted":"0","num_feature":"21","num_nodes":"63","size_leaf_vector":"1"}},{"base_weights":[2.8724143E4,2.6269762E4,3.392706E4,2.2631602E4,2.8188904E4,2.8207775E4,3.646293E4,2.1247783E4,2.4250709E4,2.6318264E4,3.011064E4,2.7436291E4,3.1045846E4,3.465077E4,4.120537E4,2.077819E4,2.3786986E4,2.3825443E4,2.7365248E4,2.432468E4,2.720623E4,2.9204252E4,3.1211414E4,2.6149357E4,2.906667E4,3.364936E4,3.0256684E4,3.3488246E4,3.6292055E4,3.798104E4,4.2720785E4,1.9997908E2,2.156996E2,2.5198682E2,2.0878398E2,2.2748825E2,2.4590779E2,2.9171375E2,2.483952E2,2.5957272E2,2.3595424E2,2.7353513E2,2.4310666E2,2.9420227E2,2.6130585E2,3.1547272E2,2.8869662E2,2.8474496E2,2.5756924E2,2.8275183E2,3.232242E2,3.26489E2,3.6405475E2,3.425783E2,2.983189E2,3.2667828E2,3.465377E2,3.1282617E2,3.6976407E2,3.8471594E2,3.402267E2,4.3940897E2,3.9488565E2],"categories":[],"categories_nodes":[],"categories_segments":[],"categories_sizes":[],"default_left":[0,0,0,0,0,0,0,0,0,0,0,0,0,0,0,0,0,0,0,0,0,0,0,0,0,0,0,0,0,0,0,0,0,0,0,0,0,0,0,0,0,0,0,0,0,0,0,0,0,0,0,0,0,0,0,0,0,0,0,0,0,0,0],"id":11,"left_children":[1,3,5,7,9,11,13,15,17,19,21,23,25,27,29,31,33,35,37,39,41,43,45,47,49,51,53,55,57,59,61,-1,-1,-1,-1,-1,-1,-1,-1,-1,-1,-1,-1,-1,-1,-1,-1,-1,-1,-1,-1,-1,-1,-1,-1,-1,-1,-1,-1,-1,-1,-1,-1],"loss_changes":[1.8552413E12,6.8896476E11,6.7462024E11,7.591795E10,2.3163463E11,3.0491542E10,2.759223E11,2.1446525E10,2.0159922E10,5.7350816E10,3.0903632E10,2.2873637E10,5.2525793E9,4.334813E10,4.1947234E10,9.1677E9,1.123772E10,1.0838082E10,7.8560625E9,1.1421614E10,9.000976E9,1.0849616E10,1.0401874E10,5.0195333E9,1.1867521E10,7.443579E8,2.9757276E9,1.1953766E10,3.2000442E10,4.2443735E9,2.2154314E10,0E0,0E0,0E0,0E0,0E0,0E0,0E0,0E0,0E0,0E0,0E0,0E0,0E0,0E0,0E0,0E0,0E0,0E0,0E0,0E0,0E0,0E0,0E0,0E0,0E0,0E0,0E0,0E0,0E0,0E0,0E0,0E0],"parents":[2147483647,0,0,1,1,2,2,3,3,4,4,5,5,6,6,7,7,8,8,9,9,10,10,11,11,12,12,13,13,14,14,15,15,16,16,17,17,18,18,19,19,20,20,21,21,22,22,23,23,24,24,25,25,26,26,27,27,28,28,29,29,30,30],"right_children":[2,4,6,8,10,12,14,16,18,20,22,24,26,28,30,32,34,36,38,40,42,44,46,48,50,52,54,56,58,60,62,-1,-1,-1,-1,-1,-1,-1,-1,-1,-1,-1,-1,-1,-1,-1,-1,-1,-1,-1,-1,-1,-1,-1,-1,-1,-1,-1,-1,-1,-1,-1,-1],"split_conditions":[3.375929E4,8E0,8E0,2.9486059E4,2.9719262E4,3.973352E4,3.921688E4,7E0,7E0,2.6875852E4,3.1737832E4,2.7281126E-1,1E0,5.4397695E3,6.694499E3,2.7530674E4,5E0,1.0837701E-1,4.478246E3,5E0,2.3E1,2.3E1,2.2E1,1E0,6E0,4.4435812E4,5.3E1,3.5966086E4,1E1,2.3E1,-2.5881904E-1,1.9997908E2,2.156996E2,2.5198682E2,2.0878398E2,2.2748825E2,2.4590779E2,2.9171375E2,2.483952E2,2.5957272E2,2.3595424E2,2.7353513E2,2.4310666E2,2.9420227E2,2.6130585E2,3.1547272E2,2.8869662E2,2.8474496E2,2.5756924E2,2.8275183E2,3.232242E2,3.26489E2,3.6405475E2,3.425783E2,2.983189E2,3.2667828E2,3.465377E2,3.1282617E2,3.6976407E2,3.8471594E2,3.402267E2,4.3940897E2,3.9488565E2],"split_indices":[12,0,0,12,12,12,12,0,0,12,12,17,0,9,9,12,1,17,9,1,0,0,0,0,0,12,5,12,0,0,14,0,0,0,0,0,0,0,0,0,0,0,0,0,0,0,0,0,0,0,0,0,0,0,0,0,0,0,0,0,0,0,0],"split_type":[0,0,0,0,0,0,0,0,0,0,0,0,0,0,0,0,0,0,0,0,0,0,0,0,0,0,0,0,0,0,0,0,0,0,0,0,0,0,0,0,0,0,0,0,0,0,0,0,0,0,0,0,0,0,0,0,0,0,0,0,0,0,0],"sum_hessian":[1.45351E5,9.8766E4,4.6585E4,3.4112E4,6.4654E4,1.4314E4,3.2271E4,1.84E4,1.5712E4,3.277E4,3.1884E4,1.1263E4,3.051E3,2.3355E4,8.916E3,1.5536E4,2.864E3,1.3832E4,1.88E3,1.0107E4,2.2663E4,1.7501E4,1.4383E4,6.304E3,4.959E3,7E2,2.351E3,1.3684E4,9.671E3,2.859E3,6.057E3,7.838E3,7.698E3,1.923E3,9.41E2,5.76E3,8.072E3,1.09E3,7.9E2,3.11E3,6.997E3,2.1558E4,1.105E3,1.6344E4,1.157E3,1.2568E4,1.815E3,9E2,5.404E3,3.997E3,9.62E2,5.23E2,1.77E2,2.18E2,2.133E3,8.048E3,5.636E3,1.168E3,8.503E3,2.536E3,3.23E2,4.388E3,1.669E3],"tree_param":{"num_deleted":"0","num_feature":"21","num_nodes":"63","size_leaf_vector":"1"}},{"base_weights":[2.8436965E4,2.569501E4,3.30024E4,2.175288E4,2.7373295E4,2.752905E4,3.5448402E4,2.0293436E4,2.3069486E4,2.4934686E4,2.8675318E4,2.649121E4,2.9847623E4,3.3341645E4,3.9731996E4,1.9383477E4,2.0774744E4,2.4017209E4,2.22922E4,2.299007E4,2.5677395E4,2.774706E4,2.9841518E4,2.5107094E4,2.7934617E4,2.9135336E4,3.2606713E4,3.224979E4,3.4669152E4,3.8191805E4,4.3341785E4,1.979426E2,1.875669E2,2.047057E2,2.2257823E2,2.3099121E2,2.4885446E2,2.1583232E2,2.3090182E2,2.475536E2,2.2498581E2,2.6371085E2,2.4722916E2,2.7907614E2,2.4956743E2,3.0041333E2,2.6713336E2,2.7304938E2,2.4757817E2,2.7153223E2,3.099118E2,2.8321252E2,3.1993295E2,3.4093088E2,3.103574E2,3.2650183E2,2.9747733E2,3.516483E2,3.175666E2,3.8949765E2,3.4469775E2,4.5543222E2,4.0670145E2],"categories":[],"categories_nodes":[],"categories_segments":[],"categories_sizes":[],"default_left":[0,0,0,0,0,0,0,0,1,0,0,0,0,0,0,0,0,0,0,0,0,0,0,0,0,0,0,0,0,0,0,0,0,0,0,0,0,0,0,0,0,0,0,0,0,0,0,0,0,0,0,0,0,0,0,0,0,0,0,0,0,0,0],"id":12,"left_children":[1,3,5,7,9,11,13,15,17,19,21,23,25,27,29,31,33,35,37,39,41,43,45,47,49,51,53,55,57,59,61,-1,-1,-1,-1,-1,-1,-1,-1,-1,-1,-1,-1,-1,-1,-1,-1,-1,-1,-1,-1,-1,-1,-1,-1,-1,-1,-1,-1,-1,-1,-1,-1],"loss_changes":[1.8186922E12,6.0024685E11,7.291546E11,5.164971E10,2.0151953E11,3.9753613E10,3.387991E11,5.2344914E9,9.963045E9,3.1439454E10,4.411569E10,2.2569026E10,9.273606E9,3.5508978E10,6.7396174E10,7.79092E8,3.3357824E9,4.5337805E9,3.9395E9,4.769186E9,9.968812E9,9.665774E9,1.0689184E10,3.8962463E9,1.2755403E10,8.735425E9,1.4146601E9,1.2934185E10,1.5327035E10,2.323959E10,1.9950207E10,0E0,0E0,0E0,0E0,0E0,0E0,0E0,0E0,0E0,0E0,0E0,0E0,0E0,0E0,0E0,0E0,0E0,0E0,0E0,0E0,0E0,0E0,0E0,0E0,0E0,0E0,0E0,0E0,0E0,0E0,0E0,0E0],"parents":[2147483647,0,0,1,1,2,2,3,3,4,4,5,5,6,6,7,7,8,8,9,9,10,10,11,11,12,12,13,13,14,14,15,15,16,16,17,17,18,18,19,19,20,20,21,21,22,22,23,23,24,24,25,25,26,26,27,27,28,28,29,29,30,30],"right_children":[2,4,6,8,10,12,14,16,18,20,22,24,26,28,30,32,34,36,38,40,42,44,46,48,50,52,54,56,58,60,62,-1,-1,-1,-1,-1,-1,-1,-1,-1,-1,-1,-1,-1,-1,-1,-1,-1,-1,-1,-1,-1,-1,-1,-1,-1,-1,-1,-1,-1,-1,-1,-1],"split_conditions":[3.293375E4,7E0,8E0,2.8831877E4,2.830444E4,3.7919668E4,3.7919668E4,2.6495037E4,3.6112683E3,2.5865459E4,3.0698201E4,2.3955657E-1,4.292595E4,3.5271176E4,4.2128945E4,5E0,6E0,3.0567135E4,3.0881957E4,4E0,5E0,2.3E1,2.3E1,1E0,6E0,1.5951325E-1,2E0,2.2E1,2.2E1,2.2E1,2E1,1.979426E2,1.875669E2,2.047057E2,2.2257823E2,2.3099121E2,2.4885446E2,2.1583232E2,2.3090182E2,2.475536E2,2.2498581E2,2.6371085E2,2.4722916E2,2.7907614E2,2.4956743E2,3.0041333E2,2.6713336E2,2.7304938E2,2.4757817E2,2.7153223E2,3.099118E2,2.8321252E2,3.1993295E2,3.4093088E2,3.103574E2,3.2650183E2,2.9747733E2,3.516483E2,3.175666E2,3.8949765E2,3.4469775E2,4.5543222E2,4.0670145E2],"split_indices":[12,0,0,12,12,12,12,12,9,12,12,17,12,12,12,1,0,12,12,1,1,0,0,0,0,17,0,0,0,0,0,0,0,0,0,0,0,0,0,0,0,0,0,0,0,0,0,0,0,0,0,0,0,0,0,0,0,0,0,0,0,0,0],"split_type":[0,0,0,0,0,0,0,0,0,0,0,0,0,0,0,0,0,0,0,0,0,0,0,0,0,0,0,0,0,0,0,0,0,0,0,0,0,0,0,0,0,0,0,0,0,0,0,0,0,0,0,0,0,0,0,0,0,0,0,0,0,0,0],"sum_hessian":[1.45351E5,9.0815E4,5.4536E4,2.7122E4,6.3693E4,1.6848E4,3.7688E4,1.2871E4,1.4251E4,2.2177E4,4.1516E4,1.1647E4,5.201E3,2.5269E4,1.2419E4,4.467E3,8.404E3,6.408E3,7.843E3,6.138E3,1.6039E4,2.313E4,1.8386E4,5.955E3,5.692E3,4.143E3,1.058E3,1.3879E4,1.139E4,8.713E3,3.706E3,2.68E3,1.787E3,6.986E3,1.418E3,3.128E3,3.28E3,4.168E3,3.675E3,1.326E3,4.812E3,9.273E3,6.766E3,2.1863E4,1.267E3,1.7274E4,1.112E3,8.06E2,5.149E3,4.541E3,1.151E3,3.233E3,9.1E2,5.33E2,5.25E2,1.1954E4,1.925E3,9.724E3,1.666E3,7.231E3,1.482E3,2.023E3,1.683E3],"tree_param":{"num_deleted":"0","num_feature":"21","num_nodes":"63","size_leaf_vector":"1"}},{"base_weights":[2.8152658E4,2.5746348E4,3.325367E4,2.2177383E4,2.7628994E4,2.764914E4,3.573866E4,2.0835346E4,2.3781715E4,2.5794924E4,2.9513162E4,2.6862633E4,3.033144E4,3.3905754E4,4.0250215E4,2.0376791E4,2.3315244E4,2.3149232E4,2.5795719E4,2.3840646E4,2.666538E4,2.8624979E4,3.0591822E4,2.5582268E4,2.84629E4,2.9679584E4,3.3375902E4,3.2786156E4,3.5510086E4,3.7124562E4,4.178605E4,1.9653358E2,2.1213127E2,2.470425E2,2.0430359E2,2.4058067E2,2.2441463E2,2.7395428E2,2.3573257E2,2.5440555E2,2.312599E2,2.6810297E2,2.3816423E2,2.8937296E2,2.6562564E2,3.0921664E2,2.829205E2,2.4550226E2,2.640097E2,2.768742E2,3.1649518E2,3.3349338E2,2.9174078E2,3.5704453E2,3.2215652E2,3.307792E2,2.9726428E2,3.0587643E2,3.6191315E2,3.760216E2,3.3218088E2,4.300212E2,3.8608755E2],"categories":[],"categories_nodes":[],"categories_segments":[],"categories_sizes":[],"default_left":[0,0,0,0,0,0,0,0,0,0,0,0,0,0,0,0,0,1,0,0,0,0,0,0,0,0,0,0,0,0,0,0,0,0,0,0,0,0,0,0,0,0,0,0,0,0,0,0,0,0,0,0,0,0,0,0,0,0,0,0,0,0,0],"id":13,"left_children":[1,3,5,7,9,11,13,15,17,19,21,23,25,27,29,31,33,35,37,39,41,43,45,47,49,51,53,55,57,59,61,-1,-1,-1,-1,-1,-1,-1,-1,-1,-1,-1,-1,-1,-1,-1,-1,-1,-1,-1,-1,-1,-1,-1,-1,-1,-1,-1,-1,-1,-1,-1,-1],"loss_changes":[1.7832838E12,6.630104E11,6.4782284E11,7.295153E10,2.2266721E11,2.9385294E10,2.6549944E11,2.0656947E10,1.918632E10,5.5111057E10,2.9672604E10,2.1970289E10,5.4352937E9,4.0070283E10,4.318036E10,9.076998E9,1.1087905E10,7.068975E9,1.2519473E10,1.0969154E10,8.717861E9,1.0504634E10,1.0035921E10,4.559995E9,1.1269571E10,3.9911424E9,3.7086822E8,1.1098128E10,3.0490493E10,4.4955075E9,2.245106E10,0E0,0E0,0E0,0E0,0E0,0E0,0E0,0E0,0E0,0E0,0E0,0E0,0E0,0E0,0E0,0E0,0E0,0E0,0E0,0E0,0E0,0E0,0E0,0E0,0E0,0E0,0E0,0E0,0E0,0E0,0E0,0E0],"parents":[2147483647,0,0,1,1,2,2,3,3,4,4,5,5,6,6,7,7,8,8,9,9,10,10,11,11,12,12,13,13,14,14,15,15,16,16,17,17,18,18,19,19,20,20,21,21,22,22,23,23,24,24,25,25,26,26,27,27,28,28,29,29,30,30],"right_children":[2,4,6,8,10,12,14,16,18,20,22,24,26,28,30,32,34,36,38,40,42,44,46,48,50,52,54,56,58,60,62,-1,-1,-1,-1,-1,-1,-1,-1,-1,-1,-1,-1,-1,-1,-1,-1,-1,-1,-1,-1,-1,-1,-1,-1,-1,-1,-1,-1,-1,-1,-1,-1],"split_conditions":[3.375929E4,8E0,8E0,2.9525895E4,2.9719262E4,3.9574945E4,3.9046953E4,7E0,6E0,2.6875852E4,3.1737832E4,2.7281126E-1,4.4435812E4,5.4397695E3,6.694499E3,2.7684102E4,5E0,3.6112683E3,4.478246E3,5E0,2.3E1,2.2E1,2.2E1,3.5966086E4,6E0,5.3E1,1E0,2.3E1,1E1,2.3E1,-2.5881904E-1,1.9653358E2,2.1213127E2,2.470425E2,2.0430359E2,2.4058067E2,2.2441463E2,2.7395428E2,2.3573257E2,2.5440555E2,2.312599E2,2.6810297E2,2.3816423E2,2.8937296E2,2.6562564E2,3.0921664E2,2.829205E2,2.4550226E2,2.640097E2,2.768742E2,3.1649518E2,3.3349338E2,2.9174078E2,3.5704453E2,3.2215652E2,3.307792E2,2.9726428E2,3.0587643E2,3.6191315E2,3.760216E2,3.3218088E2,4.300212E2,3.8608755E2],"split_indices":[12,0,0,12,12,12,12,0,0,12,12,17,12,9,9,12,1,9,9,1,0,0,0,12,0,5,0,0,0,0,14,0,0,0,0,0,0,0,0,0,0,0,0,0,0,0,0,0,0,0,0,0,0,0,0,0,0,0,0,0,0,0,0],"split_type":[0,0,0,0,0,0,0,0,0,0,0,0,0,0,0,0,0,0,0,0,0,0,0,0,0,0,0,0,0,0,0,0,0,0,0,0,0,0,0,0,0,0,0,0,0,0,0,0,0,0,0,0,0,0,0,0,0,0,0,0,0,0,0],"sum_hessian":[1.45351E5,9.8766E4,4.6585E4,3.4112E4,6.4654E4,1.4314E4,3.2271E4,1.8582E4,1.553E4,3.277E4,3.1884E4,1.1077E4,3.237E3,2.2954E4,9.317E3,1.569E4,2.892E3,1.1828E4,3.702E3,1.0107E4,2.2663E4,1.7501E4,1.4383E4,6.163E3,4.914E3,2.675E3,5.62E2,1.3532E4,9.422E3,3.078E3,6.239E3,8.426E3,7.264E3,1.947E3,9.45E2,5.164E3,6.664E3,2.146E3,1.556E3,3.11E3,6.997E3,2.1558E4,1.105E3,1.5188E4,2.313E3,1.2568E4,1.815E3,2.74E3,3.423E3,3.96E3,9.54E2,3.16E2,2.359E3,1.77E2,3.85E2,1.2345E4,1.187E3,1.151E3,8.271E3,2.735E3,3.43E2,4.503E3,1.736E3],"tree_param":{"num_deleted":"0","num_feature":"21","num_nodes":"63","size_leaf_vector":"1"}},{"base_weights":[2.7871195E4,2.5227248E4,3.2422246E4,2.1759893E4,2.7071137E4,2.7033318E4,3.483103E4,2.0373252E4,2.307906E4,2.4741904E4,2.8331328E4,2.6006545E4,2.9258916E4,3.2934254E4,3.9367227E4,1.9642084E4,2.1893836E4,2.2429318E4,2.5139645E4,2.5950787E4,2.3633244E4,2.7339133E4,2.941951E4,2.464937E4,2.74277E4,2.8559955E4,3.1966404E4,3.1897953E4,3.4540305E4,3.7744547E4,4.24956E4,2.1623267E2,1.9409528E2,2.2970586E2,1.968635E2,2.1653525E2,2.3227437E2,2.65174E2,2.2916138E2,2.6870813E2,2.5429918E2,2.208811E2,2.4379071E2,2.751446E2,2.4483163E2,2.9744653E2,2.7207373E2,2.681774E2,2.430298E2,2.691525E2,3.1938046E2,2.775827E2,3.137455E2,3.105956E2,3.4553125E2,3.2301437E2,2.938125E2,3.5069232E2,3.1532724E2,3.874591E2,3.485189E2,4.4671643E2,3.985498E2],"categories":[],"categories_nodes":[],"categories_segments":[],"categories_sizes":[],"default_left":[0,0,0,0,0,0,0,0,0,0,0,0,0,0,0,0,0,0,0,0,0,0,0,0,0,0,0,0,0,0,0,0,0,0,0,0,0,0,0,0,0,0,0,0,0,0,0,0,0,0,0,0,0,0,0,0,0,0,0,0,0,0,0],"id":14,"left_children":[1,3,5,7,9,11,13,15,17,19,21,23,25,27,29,31,33,35,37,39,41,43,45,47,49,51,53,55,57,59,61,-1,-1,-1,-1,-1,-1,-1,-1,-1,-1,-1,-1,-1,-1,-1,-1,-1,-1,-1,-1,-1,-1,-1,-1,-1,-1,-1,-1,-1,-1,-1,-1],"loss_changes":[1.7481691E12,5.872445E11,6.923454E11,5.7927533E10,1.754729E11,3.695182E10,3.162589E11,1.6884171E10,2.1330133E10,2.7639415E10,4.1240494E10,2.112304E10,8.931246E9,4.2226156E10,5.3612642E10,4.4299715E9,1.1546395E10,7.2005714E9,1.1376525E10,4.1444966E9,1.2145656E10,9.532604E9,1.253992E10,3.697541E9,1.1880104E10,8.479572E9,1.410859E9,1.5130952E10,1.5116272E10,1.9419628E10,1.9520815E10,0E0,0E0,0E0,0E0,0E0,0E0,0E0,0E0,0E0,0E0,0E0,0E0,0E0,0E0,0E0,0E0,0E0,0E0,0E0,0E0,0E0,0E0,0E0,0E0,0E0,0E0,0E0,0E0,0E0,0E0,0E0,0E0],"parents":[2147483647,0,0,1,1,2,2,3,3,4,4,5,5,6,6,7,7,8,8,9,9,10,10,11,11,12,12,13,13,14,14,15,15,16,16,17,17,18,18,19,19,20,20,21,21,22,22,23,23,24,24,25,25,26,26,27,27,28,28,29,29,30,30],"right_children":[2,4,6,8,10,12,14,16,18,20,22,24,26,28,30,32,34,36,38,40,42,44,46,48,50,52,54,56,58,60,62,-1,-1,-1,-1,-1,-1,-1,-1,-1,-1,-1,-1,-1,-1,-1,-1,-1,-1,-1,-1,-1,-1,-1,-1,-1,-1,-1,-1,-1,-1,-1,-1],"split_conditions":[3.30425E4,8E0,8E0,2.8873852E4,2.8441473E4,3.7919668E4,3.8448375E4,6E0,6E0,5E0,3.0653662E4,2.3955657E-1,4.292595E4,3.5810387E4,4.2128945E4,1E0,5E0,3.0786633E4,4.478246E3,2.012E3,2.5582043E4,2.3E1,2.2E1,1E0,7E0,1.5951325E-1,4.617486E4,2.2E1,2.2E1,2.1E1,2E1,2.1623267E2,1.9409528E2,2.2970586E2,1.968635E2,2.1653525E2,2.3227437E2,2.65174E2,2.2916138E2,2.6870813E2,2.5429918E2,2.208811E2,2.4379071E2,2.751446E2,2.4483163E2,2.9744653E2,2.7207373E2,2.681774E2,2.430298E2,2.691525E2,3.1938046E2,2.775827E2,3.137455E2,3.105956E2,3.4553125E2,3.2301437E2,2.938125E2,3.5069232E2,3.1532724E2,3.874591E2,3.485189E2,4.4671643E2,3.985498E2],"split_indices":[12,0,0,12,12,12,12,0,0,1,12,17,12,12,12,0,1,12,9,4,12,0,0,0,0,17,12,0,0,0,0,0,0,0,0,0,0,0,0,0,0,0,0,0,0,0,0,0,0,0,0,0,0,0,0,0,0,0,0,0,0,0,0],"split_type":[0,0,0,0,0,0,0,0,0,0,0,0,0,0,0,0,0,0,0,0,0,0,0,0,0,0,0,0,0,0,0,0,0,0,0,0,0,0,0,0,0,0,0,0,0,0,0,0,0,0,0,0,0,0,0,0,0,0,0,0,0,0,0],"sum_hessian":[1.45351E5,9.1943E4,5.3408E4,3.1924E4,6.0019E4,1.6502E4,3.6906E4,1.5572E4,1.6352E4,2.1079E4,3.894E4,1.1301E4,5.201E3,2.603E4,1.0876E4,1.0525E4,5.047E3,1.2441E4,3.911E3,1.0073E4,1.1006E4,2.0382E4,1.8558E4,5.79E3,5.511E3,4.143E3,1.058E3,1.5834E4,1.0196E4,7.17E3,3.706E3,1.096E3,9.429E3,3.386E3,1.661E3,6.323E3,6.118E3,2.408E3,1.503E3,3.623E3,6.45E3,3.593E3,7.413E3,1.9195E4,1.187E3,1.6169E4,2.389E3,7.87E2,5.003E3,4.955E3,5.56E2,3.233E3,9.1E2,7.93E2,2.65E2,1.3636E4,2.198E3,8.662E3,1.534E3,5.317E3,1.853E3,2.023E3,1.683E3],"tree_param":{"num_deleted":"0","num_feature":"21","num_nodes":"63","size_leaf_vector":"1"}},{"base_weights":[2.7592545E4,2.5233355E4,3.2593674E4,2.1735322E4,2.7078582E4,2.7101244E4,3.5028957E4,2.0523045E4,2.3445408E4,2.5324375E4,2.8972678E4,2.6460076E4,3.0281307E4,3.3285863E4,3.959066E4,2.008356E4,2.295923E4,2.303497E4,2.6434262E4,2.3362293E4,2.6168393E4,2.81216E4,3.0009854E4,2.5317482E4,2.7996938E4,3.2826332E4,2.9466594E4,3.2154943E4,3.4882574E4,3.6458867E4,4.1062652E4,1.9288243E2,2.0937799E2,2.433516E2,2.012533E2,2.1934442E2,2.3806435E2,2.8276114E2,2.4009895E2,2.4928316E2,2.2662769E2,2.660095E2,2.5222958E2,2.8431256E2,2.607838E2,3.0331223E2,2.776747E2,2.4302911E2,2.638328E2,2.724647E2,3.1128018E2,3.1754E2,3.5021524E2,3.3898193E2,2.9069437E2,3.149273E2,3.350004E2,2.9973618E2,3.5553278E2,3.6932843E2,3.263498E2,4.1971478E2,3.6900494E2],"categories":[],"categories_nodes":[],"categories_segments":[],"categories_sizes":[],"default_left":[0,0,0,0,0,0,0,0,0,0,0,0,0,0,0,0,0,0,0,0,0,0,0,0,0,0,0,0,0,0,0,0,0,0,0,0,0,0,0,0,0,0,0,0,0,0,0,0,0,0,0,0,0,0,0,0,0,0,0,0,0,0,0],"id":15,"left_children":[1,3,5,7,9,11,13,15,17,19,21,23,25,27,29,31,33,35,37,39,41,43,45,47,49,51,53,55,57,59,61,-1,-1,-1,-1,-1,-1,-1,-1,-1,-1,-1,-1,-1,-1,-1,-1,-1,-1,-1,-1,-1,-1,-1,-1,-1,-1,-1,-1,-1,-1,-1,-1],"loss_changes":[1.7141365E12,6.3691765E11,6.221663E11,7.023991E10,2.1409405E11,2.8386E10,2.552905E11,2.0919091E10,1.6742613E10,5.4989423E10,2.6593985E10,2.022441E10,3.9987446E9,4.1053848E10,3.960996E10,1.1096031E10,1.1383472E10,1.0042737E10,6.9166694E9,1.0508304E10,8.926527E9,1.0070524E10,9.2411E9,6.7635773E9,1.1074798E10,2.3442227E8,2.224816E9,1.1132731E10,3.07799E10,3.977773E9,2.1366833E10,0E0,0E0,0E0,0E0,0E0,0E0,0E0,0E0,0E0,0E0,0E0,0E0,0E0,0E0,0E0,0E0,0E0,0E0,0E0,0E0,0E0,0E0,0E0,0E0,0E0,0E0,0E0,0E0,0E0,0E0,0E0,0E0],"parents":[2147483647,0,0,1,1,2,2,3,3,4,4,5,5,6,6,7,7,8,8,9,9,10,10,11,11,12,12,13,13,14,14,15,15,16,16,17,17,18,18,19,19,20,20,21,21,22,22,23,23,24,24,25,25,26,26,27,27,28,28,29,29,30,30],"right_children":[2,4,6,8,10,12,14,16,18,20,22,24,26,28,30,32,34,36,38,40,42,44,46,48,50,52,54,56,58,60,62,-1,-1,-1,-1,-1,-1,-1,-1,-1,-1,-1,-1,-1,-1,-1,-1,-1,-1,-1,-1,-1,-1,-1,-1,-1,-1,-1,-1,-1,-1,-1,-1],"split_conditions":[3.375929E4,8E0,8E0,2.984295E4,2.980442E4,4.0539105E4,3.921688E4,7E0,7E0,2.6875852E4,3.1788047E4,2.7281126E-1,1E0,5.4397695E3,6.694499E3,2.7784787E4,5E0,1.0837701E-1,4.4510723E3,5E0,5E0,2.2E1,2.2E1,3.666346E4,6E0,4.4435812E4,5.411383E3,3.638607E4,1E1,2.3E1,2.2E1,1.9288243E2,2.0937799E2,2.433516E2,2.012533E2,2.1934442E2,2.3806435E2,2.8276114E2,2.4009895E2,2.4928316E2,2.2662769E2,2.660095E2,2.5222958E2,2.8431256E2,2.607838E2,3.0331223E2,2.776747E2,2.4302911E2,2.638328E2,2.724647E2,3.1128018E2,3.1754E2,3.5021524E2,3.3898193E2,2.9069437E2,3.149273E2,3.350004E2,2.9973618E2,3.5553278E2,3.6932843E2,3.263498E2,4.1971478E2,3.6900494E2],"split_indices":[12,0,0,12,12,12,12,0,0,12,12,17,0,9,9,12,1,17,9,1,1,0,0,12,0,12,11,12,0,0,0,0,0,0,0,0,0,0,0,0,0,0,0,0,0,0,0,0,0,0,0,0,0,0,0,0,0,0,0,0,0,0,0],"split_type":[0,0,0,0,0,0,0,0,0,0,0,0,0,0,0,0,0,0,0,0,0,0,0,0,0,0,0,0,0,0,0,0,0,0,0,0,0,0,0,0,0,0,0,0,0,0,0,0,0,0,0,0,0,0,0,0,0,0,0,0,0,0,0],"sum_hessian":[1.45351E5,9.8766E4,4.6585E4,3.4112E4,6.4654E4,1.4314E4,3.2271E4,1.9969E4,1.4143E4,3.3574E4,3.108E4,1.192E4,2.394E3,2.3355E4,8.916E3,1.6925E4,3.044E3,1.2443E4,1.7E3,1.0107E4,2.3467E4,1.7087E4,1.3993E4,6.847E3,5.073E3,5.71E2,1.823E3,1.3684E4,9.671E3,2.859E3,6.057E3,8.777E3,8.148E3,2.044E3,1E3,5.14E3,7.303E3,9.6E2,7.4E2,3.11E3,6.997E3,1.6082E4,7.385E3,1.4827E4,2.26E3,1.2228E4,1.765E3,3.52E3,3.327E3,4.1E3,9.73E2,3.94E2,1.77E2,1.43E2,1.68E3,9.186E3,4.498E3,1.168E3,8.503E3,2.536E3,3.23E2,4.964E3,1.093E3],"tree_param":{"num_deleted":"0","num_feature":"21","num_nodes":"63","size_leaf_vector":"1"}},{"base_weights":[2.7316682E4,2.4658975E4,3.1668838E4,2.0872537E4,2.6270602E4,2.6422945E4,3.4016695E4,1.948978E4,2.213536E4,2.391481E4,2.7507611E4,2.521163E4,2.8281615E4,3.2E4,3.8178055E4,1.8535873E4,1.9929863E4,2.3217316E4,2.1479844E4,2.2066203E4,2.4637787E4,2.6624709E4,2.8614436E4,2.38498E4,2.6540957E4,2.7646998E4,3.1098055E4,3.095206E4,3.3308613E4,3.668862E4,4.1668957E4,1.8942651E2,1.7924576E2,1.963356E2,2.1344107E2,2.2353258E2,2.4046416E2,2.0700868E2,2.2147653E2,2.3757045E2,2.1595433E2,2.5307143E2,2.3726439E2,2.677854E2,2.3923564E2,2.880991E2,2.5592755E2,2.3534633E2,2.6193408E2,2.5758243E2,2.9522302E2,2.672493E2,3.0127246E2,3.3551242E2,3.015814E2,3.1335803E2,2.8533145E2,3.3792874E2,3.0463516E2,3.7645047E2,3.3884058E2,4.381129E2,3.906934E2],"categories":[],"categories_nodes":[],"categories_segments":[],"categories_sizes":[],"default_left":[0,0,0,0,0,0,0,0,1,0,0,0,0,0,0,0,0,0,0,0,0,0,0,0,0,0,0,0,0,0,0,0,0,0,0,0,0,0,0,0,0,0,0,0,0,0,0,0,0,0,0,0,0,0,0,0,0,0,0,0,0,0,0],"id":16,"left_children":[1,3,5,7,9,11,13,15,17,19,21,23,25,27,29,31,33,35,37,39,41,43,45,47,49,51,53,55,57,59,61,-1,-1,-1,-1,-1,-1,-1,-1,-1,-1,-1,-1,-1,-1,-1,-1,-1,-1,-1,-1,-1,-1,-1,-1,-1,-1,-1,-1,-1,-1,-1,-1],"loss_changes":[1.680473E12,5.5017524E11,6.778037E11,4.662598E10,1.8380279E11,3.765646E10,3.1821765E11,5.0342134E9,9.485943E9,2.8593619E10,3.979136E10,1.8061722E10,1.1144266E10,3.4139537E10,6.3048778E10,6.744965E8,3.2663142E9,3.25845E9,4.1091072E9,4.3736105E9,8.954839E9,8.957985E9,1.0131341E10,3.158573E9,1.1413488E10,1.175008E10,1.8173133E9,1.2338594E10,1.4665384E10,2.209874E10,1.8933088E10,0E0,0E0,0E0,0E0,0E0,0E0,0E0,0E0,0E0,0E0,0E0,0E0,0E0,0E0,0E0,0E0,0E0,0E0,0E0,0E0,0E0,0E0,0E0,0E0,0E0,0E0,0E0,0E0,0E0,0E0,0E0,0E0],"parents":[2147483647,0,0,1,1,2,2,3,3,4,4,5,5,6,6,7,7,8,8,9,9,10,10,11,11,12,12,13,13,14,14,15,15,16,16,17,17,18,18,19,19,20,20,21,21,22,22,23,23,24,24,25,25,26,26,27,27,28,28,29,29,30,30],"right_children":[2,4,6,8,10,12,14,16,18,20,22,24,26,28,30,32,34,36,38,40,42,44,46,48,50,52,54,56,58,60,62,-1,-1,-1,-1,-1,-1,-1,-1,-1,-1,-1,-1,-1,-1,-1,-1,-1,-1,-1,-1,-1,-1,-1,-1,-1,-1,-1,-1,-1,-1,-1,-1],"split_conditions":[3.287633E4,7E0,8E0,2.8831877E4,2.8260836E4,3.694611E4,3.7919668E4,2.6355264E4,3.426781E3,2.5865459E4,3.0653662E4,2.3955657E-1,4.2501094E4,3.5271176E4,4.2128945E4,5E0,6E0,3.0567135E4,3.0567135E4,4E0,5E0,2.3E1,2.3E1,7E0,6E0,1.5951325E-1,1E0,2.2E1,2.2E1,2.1E1,2E1,1.8942651E2,1.7924576E2,1.963356E2,2.1344107E2,2.2353258E2,2.4046416E2,2.0700868E2,2.2147653E2,2.3757045E2,2.1595433E2,2.5307143E2,2.3726439E2,2.677854E2,2.3923564E2,2.880991E2,2.5592755E2,2.3534633E2,2.6193408E2,2.5758243E2,2.9522302E2,2.672493E2,3.0127246E2,3.3551242E2,3.015814E2,3.1335803E2,2.8533145E2,3.3792874E2,3.0463516E2,3.7645047E2,3.3884058E2,4.381129E2,3.906934E2],"split_indices":[12,0,0,12,12,12,12,12,9,12,12,17,12,12,12,1,0,12,12,1,1,0,0,0,0,17,0,0,0,0,0,0,0,0,0,0,0,0,0,0,0,0,0,0,0,0,0,0,0,0,0,0,0,0,0,0,0,0,0,0,0,0,0],"split_type":[0,0,0,0,0,0,0,0,0,0,0,0,0,0,0,0,0,0,0,0,0,0,0,0,0,0,0,0,0,0,0,0,0,0,0,0,0,0,0,0,0,0,0,0,0,0,0,0,0,0,0,0,0,0,0,0,0,0,0,0,0,0,0],"sum_hessian":[1.45351E5,9.0247E4,5.5104E4,2.6948E4,6.3299E4,1.7041E4,3.8063E4,1.2871E4,1.4077E4,2.1801E4,4.1498E4,1.0326E4,6.715E3,2.5644E4,1.2419E4,4.077E3,8.794E3,5.298E3,8.779E3,6.138E3,1.5663E4,2.3098E4,1.84E4,5.11E3,5.216E3,5.489E3,1.226E3,1.4254E4,1.139E4,8.713E3,3.706E3,2.43E3,1.647E3,7.283E3,1.511E3,2.608E3,2.69E3,4.067E3,4.712E3,1.326E3,4.812E3,9.015E3,6.648E3,2.1845E4,1.253E3,1.7274E4,1.126E3,4.514E3,5.96E2,4.139E3,1.077E3,4.01E3,1.479E3,3.3E2,8.96E2,1.2292E4,1.962E3,9.724E3,1.666E3,6.488E3,2.225E3,2.023E3,1.683E3],"tree_param":{"num_deleted":"0","num_feature":"21","num_nodes":"63","size_leaf_vector":"1"}},{"base_weights":[2.7043576E4,2.4812828E4,3.2128727E4,2.1362305E4,2.66308E4,2.669556E4,3.45227E4,2.0124037E4,2.3056102E4,2.4820898E4,2.8494357E4,2.6051367E4,2.9687516E4,3.2771863E4,3.8807652E4,1.9696385E4,2.2502492E4,2.266025E4,2.596167E4,2.3145318E4,2.577236E4,2.7648008E4,2.9624363E4,2.4919117E4,2.7615557E4,3.2190633E4,2.8886271E4,3.1637512E4,3.4311023E4,3.618913E4,4.0520023E4,1.8902406E2,2.0532607E2,2.3856743E2,1.969179E2,2.1561302E2,2.3434966E2,2.783928E2,2.359352E2,2.4567656E2,2.2375922E2,2.5922473E2,2.2953426E2,2.7954016E2,2.562827E2,2.9006354E2,3.0820184E2,2.7332886E2,2.4503621E2,2.711451E2,3.2141135E2,3.1140717E2,3.4339648E2,3.3262305E2,2.8494223E2,3.1920215E2,2.867079E2,2.9462415E2,3.4966064E2,3.6971152E2,3.341605E2,4.1846234E2,3.7198438E2],"categories":[],"categories_nodes":[],"categories_segments":[],"categories_sizes":[],"default_left":[0,0,0,0,0,0,0,0,0,0,0,0,0,0,0,0,0,0,0,0,0,0,1,0,0,0,0,0,0,0,0,0,0,0,0,0,0,0,0,0,0,0,0,0,0,0,0,0,0,0,0,0,0,0,0,0,0,0,0,0,0,0,0],"id":17,"left_children":[1,3,5,7,9,11,13,15,17,19,21,23,25,27,29,31,33,35,37,39,41,43,45,47,49,51,53,55,57,59,61,-1,-1,-1,-1,-1,-1,-1,-1,-1,-1,-1,-1,-1,-1,-1,-1,-1,-1,-1,-1,-1,-1,-1,-1,-1,-1,-1,-1,-1,-1,-1,-1],"loss_changes":[1.6480343E12,6.3322666E11,5.7550465E11,7.266946E10,2.2246588E11,2.535981E10,2.2949134E11,2.0053492E10,1.6341533E10,5.2932116E10,3.035208E10,1.9085132E10,3.873702E9,3.705248E10,3.8515245E10,1.0957095E10,1.1193156E10,1.0529276E10,7.16007E9,1.276851E10,8.4641055E9,1.0810819E10,9.41097E9,5.836636E9,9.738387E9,2.2124954E8,2.1815624E9,9.642705E9,2.8366078E10,6.4309166E9,2.215641E10,0E0,0E0,0E0,0E0,0E0,0E0,0E0,0E0,0E0,0E0,0E0,0E0,0E0,0E0,0E0,0E0,0E0,0E0,0E0,0E0,0E0,0E0,0E0,0E0,0E0,0E0,0E0,0E0,0E0,0E0,0E0,0E0],"parents":[2147483647,0,0,1,1,2,2,3,3,4,4,5,5,6,6,7,7,8,8,9,9,10,10,11,11,12,12,13,13,14,14,15,15,16,16,17,17,18,18,19,19,20,20,21,21,22,22,23,23,24,24,25,25,26,26,27,27,28,28,29,29,30,30],"right_children":[2,4,6,8,10,12,14,16,18,20,22,24,26,28,30,32,34,36,38,40,42,44,46,48,50,52,54,56,58,60,62,-1,-1,-1,-1,-1,-1,-1,-1,-1,-1,-1,-1,-1,-1,-1,-1,-1,-1,-1,-1,-1,-1,-1,-1,-1,-1,-1,-1,-1,-1,-1,-1],"split_conditions":[3.4019285E4,8E0,8E0,2.9885545E4,2.980442E4,4.0539105E4,3.921688E4,7E0,7E0,2.7219648E4,3.1988277E4,2.7281126E-1,1E0,5.4397695E3,7.0428247E3,2.7784787E4,5E0,1.0837701E-1,4.397765E3,5E0,2.3E1,2.2E1,4.6276E3,1E0,7E0,4.4435812E4,5.411383E3,2.3E1,1E1,2.2E1,-2.5881904E-1,1.8902406E2,2.0532607E2,2.3856743E2,1.969179E2,2.1561302E2,2.3434966E2,2.783928E2,2.359352E2,2.4567656E2,2.2375922E2,2.5922473E2,2.2953426E2,2.7954016E2,2.562827E2,2.9006354E2,3.0820184E2,2.7332886E2,2.4503621E2,2.711451E2,3.2141135E2,3.1140717E2,3.4339648E2,3.3262305E2,2.8494223E2,3.1920215E2,2.867079E2,2.9462415E2,3.4966064E2,3.6971152E2,3.341605E2,4.1846234E2,3.7198438E2],"split_indices":[12,0,0,12,12,12,12,0,0,12,12,17,0,9,9,12,1,17,9,1,0,0,9,0,0,12,11,0,0,0,14,0,0,0,0,0,0,0,0,0,0,0,0,0,0,0,0,0,0,0,0,0,0,0,0,0,0,0,0,0,0,0,0],"split_type":[0,0,0,0,0,0,0,0,0,0,0,0,0,0,0,0,0,0,0,0,0,0,0,0,0,0,0,0,0,0,0,0,0,0,0,0,0,0,0,0,0,0,0,0,0,0,0,0,0,0,0,0,0,0,0,0,0,0,0,0,0,0,0],"sum_hessian":[1.45351E5,1.01035E5,4.4316E4,3.4868E4,6.6167E4,1.3558E4,3.0758E4,2.015E4,1.4718E4,3.3574E4,3.2593E4,1.1164E4,2.394E3,2.1842E4,8.916E3,1.7087E4,3.063E3,1.2961E4,1.757E3,1.2169E4,2.1405E4,1.865E4,1.3943E4,6.486E3,4.678E3,5.71E2,1.823E3,1.2587E4,9.255E3,3.534E3,5.382E3,8.777E3,8.31E3,2.062E3,1.001E3,5.371E3,7.59E3,9.74E2,7.83E2,4.261E3,7.908E3,2.0315E4,1.09E3,1.6185E4,2.465E3,9.209E3,4.734E3,9.43E2,5.543E3,4.218E3,4.6E2,3.94E2,1.77E2,1.43E2,1.68E3,1.1483E4,1.104E3,1.107E3,8.148E3,2.747E3,7.87E2,3.838E3,1.544E3],"tree_param":{"num_deleted":"0","num_feature":"21","num_nodes":"63","size_leaf_vector":"1"}},{"base_weights":[2.6773201E4,2.4337715E4,3.1338736E4,2.0973066E4,2.6118691E4,2.610304E4,3.3677035E4,1.956394E4,2.2244574E4,2.4092451E4,2.75368E4,2.5090549E4,2.8124752E4,3.180127E4,3.782521E4,1.885914E4,2.10297E4,2.1623031E4,2.4223965E4,2.2138133E4,2.4792014E4,2.659476E4,2.8560873E4,2.3769332E4,2.6488947E4,2.74515E4,3.073272E4,3.0800684E4,3.327017E4,3.6498066E4,4.1430875E4,2.0817868E2,1.862928E2,2.207711E2,1.8882515E2,2.0821535E2,2.2432025E2,2.5606186E2,2.2148097E2,2.384923E2,2.1614565E2,2.5357286E2,2.3862863E2,2.6781857E2,2.3789328E2,2.8773148E2,2.5412563E2,2.58994E2,2.3422847E2,2.5741348E2,2.940668E2,2.667214E2,3.0188046E2,2.9840784E2,3.3279578E2,3.0121866E2,3.2006937E2,2.8725836E2,3.3913174E2,3.7508893E2,3.362298E2,4.376284E2,3.883777E2],"categories":[],"categories_nodes":[],"categories_segments":[],"categories_sizes":[],"default_left":[0,0,0,0,0,0,0,0,0,0,0,0,0,0,0,0,0,0,0,0,0,0,0,0,0,0,0,0,0,0,0,0,0,0,0,0,0,0,0,0,0,0,0,0,0,0,0,0,0,0,0,0,0,0,0,0,0,0,0,0,0,0,0],"id":18,"left_children":[1,3,5,7,9,11,13,15,17,19,21,23,25,27,29,31,33,35,37,39,41,43,45,47,49,51,53,55,57,59,61,-1,-1,-1,-1,-1,-1,-1,-1,-1,-1,-1,-1,-1,-1,-1,-1,-1,-1,-1,-1,-1,-1,-1,-1,-1,-1,-1,-1,-1,-1,-1,-1],"loss_changes":[1.615453E12,5.6747675E11,6.181188E11,5.8358497E10,1.7742745E11,3.1255953E10,2.7072974E11,1.5690891E10,2.0689453E10,3.4349253E10,3.441007E10,1.8608554E10,8.290304E9,3.4355544E10,5.053717E10,4.351328E9,1.0936123E10,8.0472965E9,1.1231298E10,5.521015E9,9.26312E9,9.336521E9,1.0932453E10,3.3522975E9,1.0258481E10,8.0331407E9,1.412563E9,1.0772021E10,2.748842E10,2.187015E10,1.5951462E10,0E0,0E0,0E0,0E0,0E0,0E0,0E0,0E0,0E0,0E0,0E0,0E0,0E0,0E0,0E0,0E0,0E0,0E0,0E0,0E0,0E0,0E0,0E0,0E0,0E0,0E0,0E0,0E0,0E0,0E0,0E0,0E0],"parents":[2147483647,0,0,1,1,2,2,3,3,4,4,5,5,6,6,7,7,8,8,9,9,10,10,11,11,12,12,13,13,14,14,15,15,16,16,17,17,18,18,19,19,20,20,21,21,22,22,23,23,24,24,25,25,26,26,27,27,28,28,29,29,30,30],"right_children":[2,4,6,8,10,12,14,16,18,20,22,24,26,28,30,32,34,36,38,40,42,44,46,48,50,52,54,56,58,60,62,-1,-1,-1,-1,-1,-1,-1,-1,-1,-1,-1,-1,-1,-1,-1,-1,-1,-1,-1,-1,-1,-1,-1,-1,-1,-1,-1,-1,-1,-1,-1,-1],"split_conditions":[3.3328312E4,8E0,8E0,2.8873852E4,2.8956846E4,3.7919668E4,3.8448375E4,6E0,6E0,2.6201105E4,3.1020332E4,2.3955657E-1,4.292595E4,5.265805E3,4.292595E4,1E0,5E0,3.0881957E4,4.4238813E3,5E0,5E0,2.3E1,2.3E1,1E0,6E0,1.5951325E-1,4.617486E4,3.5810387E4,1E1,2.1E1,2E1,2.0817868E2,1.862928E2,2.207711E2,1.8882515E2,2.0821535E2,2.2432025E2,2.5606186E2,2.2148097E2,2.384923E2,2.1614565E2,2.5357286E2,2.3862863E2,2.6781857E2,2.3789328E2,2.8773148E2,2.5412563E2,2.58994E2,2.3422847E2,2.5741348E2,2.940668E2,2.667214E2,3.0188046E2,2.9840784E2,3.3279578E2,3.0121866E2,3.2006937E2,2.8725836E2,3.3913174E2,3.7508893E2,3.362298E2,4.376284E2,3.883777E2],"split_indices":[12,0,0,12,12,12,12,0,0,12,12,17,12,9,12,0,1,12,9,1,1,0,0,0,0,17,12,12,0,0,0,0,0,0,0,0,0,0,0,0,0,0,0,0,0,0,0,0,0,0,0,0,0,0,0,0,0,0,0,0,0,0,0],"split_type":[0,0,0,0,0,0,0,0,0,0,0,0,0,0,0,0,0,0,0,0,0,0,0,0,0,0,0,0,0,0,0,0,0,0,0,0,0,0,0,0,0,0,0,0,0,0,0,0,0,0,0,0,0,0,0,0,0,0,0,0,0,0,0],"sum_hessian":[1.45351E5,9.4791E4,5.056E4,3.2813E4,6.1978E4,1.5613E4,3.4947E4,1.5572E4,1.7241E4,2.5525E4,3.6453E4,1.0412E4,5.201E3,2.4071E4,1.0876E4,1.0525E4,5.047E3,1.313E4,4.111E3,6.737E3,1.8788E4,1.9001E4,1.7452E4,5.363E3,5.049E3,4.143E3,1.058E3,1.4331E4,9.74E3,7.958E3,2.918E3,1.096E3,9.429E3,3.386E3,1.661E3,6.609E3,6.521E3,2.461E3,1.65E3,1.568E3,5.169E3,1.1665E4,7.123E3,1.7805E4,1.196E3,1.6342E4,1.11E3,7.4E2,4.623E3,4.027E3,1.022E3,3.233E3,9.1E2,7.93E2,2.65E2,9.187E3,5.144E3,1.213E3,8.527E3,5.879E3,2.079E3,1.528E3,1.39E3],"tree_param":{"num_deleted":"0","num_feature":"21","num_nodes":"63","size_leaf_vector":"1"}},{"base_weights":[2.650553E4,2.4318455E4,3.1491129E4,2.0936523E4,2.6100287E4,2.6166645E4,3.383721E4,1.9722383E4,2.2597316E4,2.43258E4,2.792738E4,2.5534127E4,2.910438E4,3.227857E4,3.8468496E4,1.9301832E4,2.2061371E4,2.220755E4,2.5458264E4,2.2681555E4,2.5259473E4,2.7118133E4,2.906404E4,2.4423117E4,2.7068982E4,3.1578393E4,2.8312584E4,3.1165242E4,3.3984984E4,3.592883E4,4.011421E4,1.8520496E2,2.012475E2,2.3392752E2,1.9298195E2,2.112328E2,2.297194E2,2.72652E2,2.3088066E2,2.4074072E2,2.1928287E2,2.5407414E2,2.2481413E2,2.741918E2,2.5131133E2,2.844813E2,3.0249902E2,2.679846E2,2.4014253E2,2.6575568E2,3.1525906E2,3.0550174E2,3.368271E2,3.2632953E2,2.792564E2,3.1457587E2,2.8109912E2,2.993589E2,3.4903128E2,3.6771738E2,3.304292E2,4.1400912E2,3.6778802E2],"categories":[],"categories_nodes":[],"categories_segments":[],"categories_sizes":[],"default_left":[0,0,0,0,0,0,0,0,0,0,0,0,0,0,0,0,0,0,0,0,0,0,1,0,0,0,0,0,0,0,0,0,0,0,0,0,0,0,0,0,0,0,0,0,0,0,0,0,0,0,0,0,0,0,0,0,0,0,0,0,0,0,0],"id":19,"left_children":[1,3,5,7,9,11,13,15,17,19,21,23,25,27,29,31,33,35,37,39,41,43,45,47,49,51,53,55,57,59,61,-1,-1,-1,-1,-1,-1,-1,-1,-1,-1,-1,-1,-1,-1,-1,-1,-1,-1,-1,-1,-1,-1,-1,-1,-1,-1,-1,-1,-1,-1,-1,-1],"loss_changes":[1.5841467E12,6.082999E11,5.527086E11,6.986452E10,2.1384659E11,2.4450695E10,2.2079236E11,1.9396559E10,1.5847653E10,5.097128E10,2.9194453E10,1.8377867E10,3.797549E9,4.267285E10,3.0907826E10,1.0614211E10,1.0820387E10,1.0257695E10,6.89963E9,1.2237406E10,8.22503E9,1.0708058E10,9.029288E9,5.656543E9,9.451864E9,2.0866662E8,2.1379154E9,1.1569988E10,3.2702988E10,6.211502E9,1.859702E10,0E0,0E0,0E0,0E0,0E0,0E0,0E0,0E0,0E0,0E0,0E0,0E0,0E0,0E0,0E0,0E0,0E0,0E0,0E0,0E0,0E0,0E0,0E0,0E0,0E0,0E0,0E0,0E0,0E0,0E0,0E0,0E0],"parents":[2147483647,0,0,1,1,2,2,3,3,4,4,5,5,6,6,7,7,8,8,9,9,10,10,11,11,12,12,13,13,14,14,15,15,16,16,17,17,18,18,19,19,20,20,21,21,22,22,23,23,24,24,25,25,26,26,27,27,28,28,29,29,30,30],"right_children":[2,4,6,8,10,12,14,16,18,20,22,24,26,28,30,32,34,36,38,40,42,44,46,48,50,52,54,56,58,60,62,-1,-1,-1,-1,-1,-1,-1,-1,-1,-1,-1,-1,-1,-1,-1,-1,-1,-1,-1,-1,-1,-1,-1,-1,-1,-1,-1,-1,-1,-1,-1,-1],"split_conditions":[3.4019285E4,8E0,8E0,2.9885545E4,2.980442E4,4.0539105E4,3.973352E4,7E0,7E0,2.7219648E4,3.2039748E4,2.7281126E-1,1E0,5.7109165E3,7.1539995E3,2.7784787E4,5E0,1.0837701E-1,4.478246E3,5E0,2.3E1,2.2E1,4.6276E3,1E0,7E0,4.4435812E4,5.411383E3,2.3E1,1.1E1,2.2E1,-2.5881904E-1,1.8520496E2,2.012475E2,2.3392752E2,1.9298195E2,2.112328E2,2.297194E2,2.72652E2,2.3088066E2,2.4074072E2,2.1928287E2,2.5407414E2,2.2481413E2,2.741918E2,2.5131133E2,2.844813E2,3.0249902E2,2.679846E2,2.4014253E2,2.6575568E2,3.1525906E2,3.0550174E2,3.368271E2,3.2632953E2,2.792564E2,3.1457587E2,2.8109912E2,2.993589E2,3.4903128E2,3.6771738E2,3.304292E2,4.1400912E2,3.6778802E2],"split_indices":[12,0,0,12,12,12,12,0,0,12,12,17,0,9,9,12,1,17,9,1,0,0,9,0,0,12,11,0,0,0,14,0,0,0,0,0,0,0,0,0,0,0,0,0,0,0,0,0,0,0,0,0,0,0,0,0,0,0,0,0,0,0,0],"split_type":[0,0,0,0,0,0,0,0,0,0,0,0,0,0,0,0,0,0,0,0,0,0,0,0,0,0,0,0,0,0,0,0,0,0,0,0,0,0,0,0,0,0,0,0,0,0,0,0,0,0,0,0,0,0,0,0,0,0,0,0,0,0,0],"sum_hessian":[1.45351E5,1.01035E5,4.4316E4,3.4868E4,6.6167E4,1.3558E4,3.0758E4,2.015E4,1.4718E4,3.3574E4,3.2593E4,1.1164E4,2.394E3,2.3019E4,7.739E3,1.7087E4,3.063E3,1.2961E4,1.757E3,1.2169E4,2.1405E4,1.9053E4,1.354E4,6.486E3,4.678E3,5.71E2,1.823E3,1.3942E4,9.077E3,3.052E3,4.687E3,8.777E3,8.31E3,2.062E3,1.001E3,5.371E3,7.59E3,9.91E2,7.66E2,4.261E3,7.908E3,2.0315E4,1.09E3,1.6535E4,2.518E3,8.928E3,4.612E3,9.43E2,5.543E3,4.218E3,4.6E2,3.94E2,1.77E2,1.43E2,1.68E3,1.2716E4,1.226E3,1.684E3,7.393E3,2.353E3,6.99E2,3.374E3,1.313E3],"tree_param":{"num_deleted":"0","num_feature":"21","num_nodes":"63","size_leaf_vector":"1"}},{"base_weights":[2.6240535E4,2.368549E4,3.0424576E4,2.0045959E4,2.523459E4,2.5387623E4,3.267892E4,1.8717676E4,2.1259031E4,2.2965473E4,2.6426088E4,2.4214064E4,2.718839E4,3.0735908E4,3.668825E4,1.7783758E4,1.9148578E4,2.2321787E4,2.0615205E4,2.1177611E4,2.3664701E4,2.557777E4,2.7489557E4,2.2901742E4,2.5495082E4,2.6578293E4,2.9896014E4,2.9722291E4,3.2001676E4,3.525046E4,4.005815E4,1.8183435E2,1.7183394E2,1.8858835E2,2.0531734E2,2.1491428E2,2.3118547E2,2.2284521E2,2.0320529E2,1.9888902E2,2.1773663E2,2.4307227E2,2.278988E2,2.5726334E2,2.2969252E2,2.7679526E2,2.4553253E2,2.259002E2,2.5220863E2,2.473712E2,2.838234E2,2.568381E2,2.89845E2,2.910376E2,3.264883E2,3.0099164E2,2.734702E2,3.2478058E2,2.920334E2,3.5970663E2,3.171455E2,4.1716373E2,3.6850992E2],"categories":[],"categories_nodes":[],"categories_segments":[],"categories_sizes":[],"default_left":[0,0,0,0,0,0,0,0,1,0,0,0,0,0,0,0,0,0,0,0,0,0,0,0,0,0,0,0,0,0,0,0,0,0,0,0,0,0,0,0,0,0,0,0,0,0,0,0,0,0,0,0,0,0,0,0,0,0,0,0,0,0,0],"id":20,"left_children":[1,3,5,7,9,11,13,15,17,19,21,23,25,27,29,31,33,35,37,39,41,43,45,47,49,51,53,55,57,59,61,-1,-1,-1,-1,-1,-1,-1,-1,-1,-1,-1,-1,-1,-1,-1,-1,-1,-1,-1,-1,-1,-1,-1,-1,-1,-1,-1,-1,-1,-1,-1,-1],"loss_changes":[1.5531508E12,5.083119E11,6.248884E11,4.302517E10,1.705362E11,3.5356934E10,2.9539644E11,4.8397025E9,9.172419E9,2.6753368E10,3.673581E10,1.6777216E10,1.0299638E10,3.195011E10,5.8765345E10,6.661079E8,3.1373394E9,3.009151E9,3.8663619E9,4.2826465E9,8.25072E9,8.361345E9,9.586082E9,3.1252808E9,1.0715136E10,1.1071914E10,1.725825E9,1.1936989E10,1.4237565E10,2.1050163E10,1.8177065E10,0E0,0E0,0E0,0E0,0E0,0E0,0E0,0E0,0E0,0E0,0E0,0E0,0E0,0E0,0E0,0E0,0E0,0E0,0E0,0E0,0E0,0E0,0E0,0E0,0E0,0E0,0E0,0E0,0E0,0E0,0E0,0E0],"parents":[2147483647,0,0,1,1,2,2,3,3,4,4,5,5,6,6,7,7,8,8,9,9,10,10,11,11,12,12,13,13,14,14,15,15,16,16,17,17,18,18,19,19,20,20,21,21,22,22,23,23,24,24,25,25,26,26,27,27,28,28,29,29,30,30],"right_children":[2,4,6,8,10,12,14,16,18,20,22,24,26,28,30,32,34,36,38,40,42,44,46,48,50,52,54,56,58,60,62,-1,-1,-1,-1,-1,-1,-1,-1,-1,-1,-1,-1,-1,-1,-1,-1,-1,-1,-1,-1,-1,-1,-1,-1,-1,-1,-1,-1,-1,-1,-1,-1],"split_conditions":[3.287633E4,7E0,8E0,2.8831877E4,2.8260836E4,3.694611E4,3.7919668E4,2.6355264E4,3.426781E3,2.5865459E4,3.0653662E4,2.3955657E-1,4.2501094E4,3.5271176E4,4.2128945E4,5E0,6E0,3.0567135E4,1E0,2.4565979E4,5E0,2.3E1,2.3E1,7E0,6E0,1.5951325E-1,4.617486E4,2.2E1,2.2E1,2.2E1,2.1E1,1.8183435E2,1.7183394E2,1.8858835E2,2.0531734E2,2.1491428E2,2.3118547E2,2.2284521E2,2.0320529E2,1.9888902E2,2.1773663E2,2.4307227E2,2.278988E2,2.5726334E2,2.2969252E2,2.7679526E2,2.4553253E2,2.259002E2,2.5220863E2,2.473712E2,2.838234E2,2.568381E2,2.89845E2,2.910376E2,3.264883E2,3.0099164E2,2.734702E2,3.2478058E2,2.920334E2,3.5970663E2,3.171455E2,4.1716373E2,3.6850992E2],"split_indices":[12,0,0,12,12,12,12,12,9,12,12,17,12,12,12,1,0,12,0,12,1,0,0,0,0,17,12,0,0,0,0,0,0,0,0,0,0,0,0,0,0,0,0,0,0,0,0,0,0,0,0,0,0,0,0,0,0,0,0,0,0,0,0],"split_type":[0,0,0,0,0,0,0,0,0,0,0,0,0,0,0,0,0,0,0,0,0,0,0,0,0,0,0,0,0,0,0,0,0,0,0,0,0,0,0,0,0,0,0,0,0,0,0,0,0,0,0,0,0,0,0,0,0,0,0,0,0,0,0],"sum_hessian":[1.45351E5,9.0247E4,5.5104E4,2.6948E4,6.3299E4,1.7041E4,3.8063E4,1.2871E4,1.4077E4,2.1801E4,4.1498E4,1.0326E4,6.715E3,2.5644E4,1.2419E4,4.077E3,8.794E3,5.298E3,8.779E3,6.138E3,1.5663E4,2.3098E4,1.84E4,5.11E3,5.216E3,5.489E3,1.226E3,1.4254E4,1.139E4,8.713E3,3.706E3,2.43E3,1.647E3,7.283E3,1.511E3,2.608E3,2.69E3,1.306E3,7.473E3,1.952E3,4.186E3,9.015E3,6.648E3,2.1845E4,1.253E3,1.7274E4,1.126E3,4.514E3,5.96E2,4.139E3,1.077E3,4.01E3,1.479E3,9.61E2,2.65E2,1.2292E4,1.962E3,9.724E3,1.666E3,7.231E3,1.482E3,2.435E3,1.271E3],"tree_param":{"num_deleted":"0","num_feature":"21","num_nodes":"63","size_leaf_vector":"1"}},{"base_weights":[2.5978188E4,2.3833904E4,3.0866242E4,2.051651E4,2.5581734E4,2.5648613E4,3.3165242E4,1.932574E4,2.2145334E4,2.3842068E4,2.7372973E4,2.5027451E4,2.853363E4,3.148024E4,3.7289086E4,1.8684959E4,2.0792809E4,2.1567543E4,2.4000975E4,2.1989508E4,2.4638977E4,2.6519502E4,2.840854E4,2.3937133E4,2.6533729E4,3.0979234E4,2.7751055E4,3.047415E4,3.3109934E4,3.428335E4,3.870195E4,1.7878706E2,1.9457503E2,2.1801727E2,1.864828E2,2.0616644E2,2.2224753E2,2.5727026E2,2.1980748E2,2.3467271E2,2.1329416E2,2.5055443E2,2.3728787E2,2.6816534E2,2.457245E2,2.8620474E2,2.520398E2,2.629017E2,2.3532153E2,2.5818008E2,2.951027E2,2.9972583E2,3.3039053E2,3.2020743E2,2.736879E2,3.076095E2,2.7457712E2,2.9233667E2,3.4033392E2,3.4736276E2,3.063102E2,3.9580252E2,3.4680484E2],"categories":[],"categories_nodes":[],"categories_segments":[],"categories_sizes":[],"default_left":[0,0,0,0,0,0,0,0,0,0,0,0,0,0,0,0,0,0,0,0,0,0,0,0,0,0,0,0,0,0,0,0,0,0,0,0,0,0,0,0,0,0,0,0,0,0,0,0,0,0,0,0,0,0,0,0,0,0,0,0,0,0,0],"id":21,"left_children":[1,3,5,7,9,11,13,15,17,19,21,23,25,27,29,31,33,35,37,39,41,43,45,47,49,51,53,55,57,59,61,-1,-1,-1,-1,-1,-1,-1,-1,-1,-1,-1,-1,-1,-1,-1,-1,-1,-1,-1,-1,-1,-1,-1,-1,-1,-1,-1,-1,-1,-1,-1,-1],"loss_changes":[1.5227505E12,5.8530254E11,5.3074303E11,6.7203236E10,2.0553767E11,2.3584571E10,2.1256104E11,1.8555077E10,1.5263597E10,4.9025122E10,2.8053602E10,1.7701011E10,3.7241487E9,3.4804335E10,3.6541825E10,8.393851E9,1.2828541E10,6.562513E9,1.1590304E10,9.359589E9,8.301576E9,9.682551E9,9.269412E9,5.562958E9,9.206235E9,1.9575603E8,2.1005599E9,1.0849616E10,2.8808577E10,3.6668703E9,2.0024656E10,0E0,0E0,0E0,0E0,0E0,0E0,0E0,0E0,0E0,0E0,0E0,0E0,0E0,0E0,0E0,0E0,0E0,0E0,0E0,0E0,0E0,0E0,0E0,0E0,0E0,0E0,0E0,0E0,0E0,0E0,0E0,0E0],"parents":[2147483647,0,0,1,1,2,2,3,3,4,4,5,5,6,6,7,7,8,8,9,9,10,10,11,11,12,12,13,13,14,14,15,15,16,16,17,17,18,18,19,19,20,20,21,21,22,22,23,23,24,24,25,25,26,26,27,27,28,28,29,29,30,30],"right_children":[2,4,6,8,10,12,14,16,18,20,22,24,26,28,30,32,34,36,38,40,42,44,46,48,50,52,54,56,58,60,62,-1,-1,-1,-1,-1,-1,-1,-1,-1,-1,-1,-1,-1,-1,-1,-1,-1,-1,-1,-1,-1,-1,-1,-1,-1,-1,-1,-1,-1,-1,-1,-1],"split_conditions":[3.4019285E4,8E0,8E0,2.9885545E4,2.980442E4,4.0539105E4,3.921688E4,6E0,6E0,2.6875852E4,3.1887273E4,2.7281126E-1,1E0,5.7109165E3,6.694499E3,2.7784787E4,5E0,1.0837701E-1,4.286456E3,5E0,5E0,2.2E1,2.3E1,1E0,6E0,4.4435812E4,5.411383E3,2.3E1,1.1E1,2.3E1,2.2E1,1.7878706E2,1.9457503E2,2.1801727E2,1.864828E2,2.0616644E2,2.2224753E2,2.5727026E2,2.1980748E2,2.3467271E2,2.1329416E2,2.5055443E2,2.3728787E2,2.6816534E2,2.457245E2,2.8620474E2,2.520398E2,2.629017E2,2.3532153E2,2.5818008E2,2.951027E2,2.9972583E2,3.3039053E2,3.2020743E2,2.736879E2,3.076095E2,2.7457712E2,2.9233667E2,3.4033392E2,3.4736276E2,3.063102E2,3.9580252E2,3.4680484E2],"split_indices":[12,0,0,12,12,12,12,0,0,12,12,17,0,9,9,12,1,17,9,1,1,0,0,0,0,12,11,0,0,0,0,0,0,0,0,0,0,0,0,0,0,0,0,0,0,0,0,0,0,0,0,0,0,0,0,0,0,0,0,0,0,0,0],"split_type":[0,0,0,0,0,0,0,0,0,0,0,0,0,0,0,0,0,0,0,0,0,0,0,0,0,0,0,0,0,0,0,0,0,0,0,0,0,0,0,0,0,0,0,0,0,0,0,0,0,0,0,0,0,0,0,0,0,0,0,0,0,0,0],"sum_hessian":[1.45351E5,1.01035E5,4.4316E4,3.4868E4,6.6167E4,1.3558E4,3.0758E4,2.015E4,1.4718E4,3.3574E4,3.2593E4,1.1164E4,2.394E3,2.1842E4,8.916E3,1.4034E4,6.116E3,1.1233E4,3.485E3,1.0107E4,2.3467E4,1.7882E4,1.4711E4,6.486E3,4.678E3,5.71E2,1.823E3,1.3517E4,8.325E3,2.859E3,6.057E3,6.879E3,7.155E3,4.153E3,1.963E3,4.604E3,6.629E3,1.873E3,1.612E3,3.11E3,6.997E3,1.6082E4,7.385E3,1.5504E4,2.378E3,1.3791E4,9.2E2,9.43E2,5.543E3,3.779E3,8.99E2,3.94E2,1.77E2,1.43E2,1.68E3,1.2335E4,1.182E3,1.608E3,6.717E3,2.536E3,3.23E2,4.964E3,1.093E3],"tree_param":{"num_deleted":"0","num_feature":"21","num_nodes":"63","size_leaf_vector":"1"}},{"base_weights":[2.5718465E4,2.3213373E4,2.9820703E4,2.0023043E4,2.4914076E4,2.4884924E4,3.2029764E4,1.8770684E4,2.1224787E4,2.282166E4,2.6080793E4,2.3647482E4,2.6539018E4,3.012343E4,3.5963414E4,1.8091271E4,2.0177252E4,2.0614812E4,2.3157072E4,2.0983639E4,2.3452055E4,2.5233455E4,2.7071783E4,2.2313896E4,2.4857623E4,2.5973242E4,2.9311225E4,2.9261664E4,3.1566217E4,3.4548758E4,3.9279125E4,2.001386E2,1.7869518E2,2.1194499E2,1.809345E2,2.1568271E2,2.0030685E2,2.4446242E2,2.1026248E2,2.281548E2,2.0569122E2,2.4087482E2,2.2596707E2,2.5398431E2,2.2546486E2,2.7376242E2,2.5008266E2,2.2003589E2,2.456955E2,2.4116606E2,2.7721835E2,2.5071896E2,2.8243533E2,2.8528928E2,3.2030237E2,2.8539697E2,3.0279172E2,2.7122363E2,3.223557E2,3.546886E2,3.1851053E2,4.1344656E2,3.6773233E2],"categories":[],"categories_nodes":[],"categories_segments":[],"categories_sizes":[],"default_left":[0,0,0,0,0,0,0,0,0,0,0,0,0,0,0,0,0,1,0,0,0,0,0,0,0,0,0,0,0,0,0,0,0,0,0,0,0,0,0,0,0,0,0,0,0,0,0,0,0,0,0,0,0,0,0,0,0,0,0,0,0,0,0],"id":22,"left_children":[1,3,5,7,9,11,13,15,17,19,21,23,25,27,29,31,33,35,37,39,41,43,45,47,49,51,53,55,57,59,61,-1,-1,-1,-1,-1,-1,-1,-1,-1,-1,-1,-1,-1,-1,-1,-1,-1,-1,-1,-1,-1,-1,-1,-1,-1,-1,-1,-1,-1,-1,-1,-1],"loss_changes":[1.4930045E12,4.891691E11,6.000371E11,4.6836744E10,1.4310126E11,3.4253832E10,2.8435284E11,1.4331412E10,1.8391499E10,2.3933747E10,3.1044141E10,1.5192818E10,1.0665066E10,3.096445E10,5.689888E10,4.0674263E9,1.0215227E10,6.350176E9,1.0015343E10,3.6257137E9,7.982285E9,8.463057E9,1.0247733E10,2.7155497E9,1.0170663E10,1.1690574E10,1.6961372E9,1.0939793E10,2.76132E10,2.050071E10,1.7667457E10,0E0,0E0,0E0,0E0,0E0,0E0,0E0,0E0,0E0,0E0,0E0,0E0,0E0,0E0,0E0,0E0,0E0,0E0,0E0,0E0,0E0,0E0,0E0,0E0,0E0,0E0,0E0,0E0,0E0,0E0,0E0,0E0],"parents":[2147483647,0,0,1,1,2,2,3,3,4,4,5,5,6,6,7,7,8,8,9,9,10,10,11,11,12,12,13,13,14,14,15,15,16,16,17,17,18,18,19,19,20,20,21,21,22,22,23,23,24,24,25,25,26,26,27,27,28,28,29,29,30,30],"right_children":[2,4,6,8,10,12,14,16,18,20,22,24,26,28,30,32,34,36,38,40,42,44,46,48,50,52,54,56,58,60,62,-1,-1,-1,-1,-1,-1,-1,-1,-1,-1,-1,-1,-1,-1,-1,-1,-1,-1,-1,-1,-1,-1,-1,-1,-1,-1,-1,-1,-1,-1,-1,-1],"split_conditions":[3.287633E4,8E0,8E0,2.8831877E4,2.8441473E4,3.666346E4,3.7919668E4,6E0,6E0,2.5865459E4,3.0653662E4,9.1260724E-2,4.2501094E4,5.265805E3,4.2128945E4,1E0,5E0,3.426781E3,4.478246E3,4E0,5E0,2.3E1,2.2E1,7E0,6E0,1.5951325E-1,4.617486E4,3.5123188E4,1E1,2.1E1,2E1,2.001386E2,1.7869518E2,2.1194499E2,1.809345E2,2.1568271E2,2.0030685E2,2.4446242E2,2.1026248E2,2.281548E2,2.0569122E2,2.4087482E2,2.2596707E2,2.5398431E2,2.2546486E2,2.7376242E2,2.5008266E2,2.2003589E2,2.456955E2,2.4116606E2,2.7721835E2,2.5071896E2,2.8243533E2,2.8528928E2,3.2030237E2,2.8539697E2,3.0279172E2,2.7122363E2,3.223557E2,3.546886E2,3.1851053E2,4.1344656E2,3.6773233E2],"split_indices":[12,0,0,12,12,12,12,0,0,12,12,17,12,9,12,0,1,9,9,1,1,0,0,0,0,17,12,12,0,0,0,0,0,0,0,0,0,0,0,0,0,0,0,0,0,0,0,0,0,0,0,0,0,0,0,0,0,0,0,0,0,0,0],"split_type":[0,0,0,0,0,0,0,0,0,0,0,0,0,0,0,0,0,0,0,0,0,0,0,0,0,0,0,0,0,0,0,0,0,0,0,0,0,0,0,0,0,0,0,0,0,0,0,0,0,0,0,0,0,0,0,0,0,0,0,0,0,0,0],"sum_hessian":[1.45351E5,9.0247E4,5.5104E4,3.1385E4,5.8862E4,1.7041E4,3.8063E4,1.5377E4,1.6008E4,2.1079E4,3.7783E4,9.757E3,7.284E3,2.5644E4,1.2419E4,1.0378E4,4.999E3,1.2176E4,3.832E3,5.392E3,1.5687E4,2.0382E4,1.7401E4,4.651E3,5.106E3,6.058E3,1.226E3,1.6068E4,9.576E3,8.713E3,3.706E3,1.064E3,9.314E3,3.353E3,1.646E3,4.612E3,7.564E3,2.381E3,1.451E3,9.85E2,4.407E3,8.985E3,6.702E3,1.9195E4,1.187E3,1.5153E4,2.248E3,4.098E3,5.53E2,4.064E3,1.042E3,4.345E3,1.713E3,9.61E2,2.65E2,9.416E3,6.652E3,1.259E3,8.317E3,6.488E3,2.225E3,2.023E3,1.683E3],"tree_param":{"num_deleted":"0","num_feature":"21","num_nodes":"63","size_leaf_vector":"1"}},{"base_weights":[2.5461338E4,2.335892E4,3.0253953E4,2.0107508E4,2.5071986E4,2.5461814E4,3.2659555E4,1.897377E4,2.1756398E4,2.3366477E4,2.682806E4,2.4858104E4,2.8433143E4,3.1120838E4,3.7106336E4,1.8572646E4,2.1225834E4,2.1381693E4,2.4491697E4,2.1783314E4,2.4265463E4,2.59919E4,2.784262E4,2.4090604E4,2.7545934E4,3.1179428E4,2.6659953E4,2.9946117E4,3.3180293E4,3.4503152E4,3.8812785E4,1.778007E2,1.9363287E2,2.2516754E2,1.8532892E2,2.0314928E2,2.213462E2,2.6321317E2,2.2211523E2,2.312185E2,2.105925E2,2.4473557E2,2.235285E2,2.628339E2,2.4081216E2,2.7256415E2,2.898793E2,2.3034326E2,2.5472191E2,3.013678E2,2.670199E2,3.181033E2,2.7897128E2,2.7498254E2,2.30009E2,3.0247168E2,2.6942786E2,3.3781842E2,2.9877042E2,3.533332E2,3.171313E2,3.981767E2,3.4517725E2],"categories":[],"categories_nodes":[],"categories_segments":[],"categories_sizes":[],"default_left":[0,0,0,0,0,0,0,0,0,0,0,0,0,0,0,0,0,0,0,0,0,0,1,0,0,0,0,0,0,0,0,0,0,0,0,0,0,0,0,0,0,0,0,0,0,0,0,0,0,0,0,0,0,0,0,0,0,0,0,0,0,0,0],"id":23,"left_children":[1,3,5,7,9,11,13,15,17,19,21,23,25,27,29,31,33,35,37,39,41,43,45,47,49,51,53,55,57,59,61,-1,-1,-1,-1,-1,-1,-1,-1,-1,-1,-1,-1,-1,-1,-1,-1,-1,-1,-1,-1,-1,-1,-1,-1,-1,-1,-1,-1,-1,-1,-1,-1],"loss_changes":[1.4638708E12,5.6225903E11,5.1005673E11,6.477159E10,1.9754752E11,2.5870467E10,2.0070793E11,1.8277728E10,1.4030471E10,4.7257223E10,2.6927432E10,2.4755306E10,1.1318591E10,5.204502E10,3.2328647E10,1.0655105E10,1.0422059E10,9.587655E9,6.52424E9,1.1307844E10,7.9723233E9,9.326035E9,9.08696E9,1.3412336E10,5.164499E9,1.1274813E9,4.0391803E9,1.1817452E10,1.4796456E10,5.851316E9,1.835008E10,0E0,0E0,0E0,0E0,0E0,0E0,0E0,0E0,0E0,0E0,0E0,0E0,0E0,0E0,0E0,0E0,0E0,0E0,0E0,0E0,0E0,0E0,0E0,0E0,0E0,0E0,0E0,0E0,0E0,0E0,0E0,0E0],"parents":[2147483647,0,0,1,1,2,2,3,3,4,4,5,5,6,6,7,7,8,8,9,9,10,10,11,11,12,12,13,13,14,14,15,15,16,16,17,17,18,18,19,19,20,20,21,21,22,22,23,23,24,24,25,25,26,26,27,27,28,28,29,29,30,30],"right_children":[2,4,6,8,10,12,14,16,18,20,22,24,26,28,30,32,34,36,38,40,42,44,46,48,50,52,54,56,58,60,62,-1,-1,-1,-1,-1,-1,-1,-1,-1,-1,-1,-1,-1,-1,-1,-1,-1,-1,-1,-1,-1,-1,-1,-1,-1,-1,-1,-1,-1,-1,-1,-1],"split_conditions":[3.4019285E4,8E0,9E0,3.0009246E4,2.980442E4,7E0,3.973352E4,7E0,7E0,2.7219648E4,3.1887273E4,3.9917293E4,4.59771E3,5.8415015E3,7.1539995E3,2.7784787E4,5E0,1.0837701E-1,4.397765E3,5E0,2.2E1,2.2E1,4.6276E3,2.6037648E-1,1E0,5E0,5E0,2.3E1,2.1E1,2.2E1,2.2E1,1.778007E2,1.9363287E2,2.2516754E2,1.8532892E2,2.0314928E2,2.213462E2,2.6321317E2,2.2211523E2,2.312185E2,2.105925E2,2.4473557E2,2.235285E2,2.628339E2,2.4081216E2,2.7256415E2,2.898793E2,2.3034326E2,2.5472191E2,3.013678E2,2.670199E2,3.181033E2,2.7897128E2,2.7498254E2,2.30009E2,3.0247168E2,2.6942786E2,3.3781842E2,2.9877042E2,3.533332E2,3.171313E2,3.981767E2,3.4517725E2],"split_indices":[12,0,0,12,12,0,12,0,0,12,12,12,9,9,9,12,1,17,9,1,0,0,9,17,0,1,1,0,0,0,0,0,0,0,0,0,0,0,0,0,0,0,0,0,0,0,0,0,0,0,0,0,0,0,0,0,0,0,0,0,0,0,0],"split_type":[0,0,0,0,0,0,0,0,0,0,0,0,0,0,0,0,0,0,0,0,0,0,0,0,0,0,0,0,0,0,0,0,0,0,0,0,0,0,0,0,0,0,0,0,0,0,0,0,0,0,0,0,0,0,0,0,0,0,0,0,0,0,0],"sum_hessian":[1.45351E5,1.01035E5,4.4316E4,3.4868E4,6.6167E4,1.4815E4,2.9501E4,2.0669E4,1.4199E4,3.3574E4,3.2593E4,1.2321E4,2.494E3,2.1923E4,7.578E3,1.7552E4,3.117E3,1.2496E4,1.703E3,1.2169E4,2.1405E4,1.7882E4,1.4711E4,9.592E3,2.729E3,9.72E2,1.522E3,1.397E4,7.953E3,3.009E3,4.569E3,8.777E3,8.775E3,2.102E3,1.015E3,5.182E3,7.314E3,9.39E2,7.64E2,4.261E3,7.908E3,1.9294E4,2.111E3,1.5504E4,2.378E3,9.747E3,4.964E3,5.446E3,4.146E3,6.62E2,2.067E3,8.08E2,1.64E2,1.233E3,2.89E2,1.2689E4,1.281E3,6.72E3,1.233E3,2.31E3,6.99E2,3.696E3,8.73E2],"tree_param":{"num_deleted":"0","num_feature":"21","num_nodes":"63","size_leaf_vector":"1"}},{"base_weights":[2.5206781E4,2.275076E4,2.9228664E4,1.9623557E4,2.4417812E4,2.4391732E4,3.1393486E4,1.8395496E4,2.0801988E4,2.23651E4,2.556239E4,2.3174787E4,2.6018441E4,2.952209E4,3.5255047E4,1.7727273E4,1.977891E4,2.0201504E4,2.270423E4,2.0559168E4,2.298449E4,2.4731904E4,2.6533674E4,2.1866123E4,2.4362318E4,2.54625E4,2.8742514E4,2.8540666E4,3.0747676E4,3.38658E4,3.851122E4,1.963E2,1.750783E2,2.0779256E2,1.7729767E2,2.1142242E2,1.9625189E2,2.3974062E2,2.0605438E2,1.9283644E2,2.1131104E2,2.3607613E2,2.2145706E2,2.4894084E2,2.2090523E2,2.6738254E2,2.3555585E2,2.1562361E2,2.407415E2,2.3633716E2,2.7178622E2,2.4574522E2,2.7699188E2,2.7968805E2,3.1432614E2,2.890963E2,2.6215524E2,3.1214346E2,2.8006744E2,3.4769864E2,3.1215158E2,4.0544437E2,3.604462E2],"categories":[],"categories_nodes":[],"categories_segments":[],"categories_sizes":[],"default_left":[0,0,0,0,0,0,0,0,0,0,0,0,0,0,0,0,0,1,0,0,0,0,0,0,0,0,0,0,0,0,0,0,0,0,0,0,0,0,0,0,0,0,0,0,0,0,0,0,0,0,0,0,0,0,0,0,0,0,0,0,0,0,0],"id":24,"left_children":[1,3,5,7,9,11,13,15,17,19,21,23,25,27,29,31,33,35,37,39,41,43,45,47,49,51,53,55,57,59,61,-1,-1,-1,-1,-1,-1,-1,-1,-1,-1,-1,-1,-1,-1,-1,-1,-1,-1,-1,-1,-1,-1,-1,-1,-1,-1,-1,-1,-1,-1,-1,-1],"loss_changes":[1.4350979E12,4.7000112E11,5.7624284E11,4.5038436E10,1.3773046E11,3.3133953E10,2.7403066E11,1.386532E10,1.782789E10,2.3108518E10,2.9821501E10,1.4631305E10,1.0300686E10,2.9968302E10,5.4879322E10,3.9898317E9,9.880732E9,6.1871227E9,9.721348E9,3.5268854E9,7.6761006E9,8.1820385E9,9.973006E9,2.601255E9,9.837216E9,1.1353194E10,1.674707E9,1.147247E10,1.36965E10,1.9797115E10,1.7130062E10,0E0,0E0,0E0,0E0,0E0,0E0,0E0,0E0,0E0,0E0,0E0,0E0,0E0,0E0,0E0,0E0,0E0,0E0,0E0,0E0,0E0,0E0,0E0,0E0,0E0,0E0,0E0,0E0,0E0,0E0,0E0,0E0],"parents":[2147483647,0,0,1,1,2,2,3,3,4,4,5,5,6,6,7,7,8,8,9,9,10,10,11,11,12,12,13,13,14,14,15,15,16,16,17,17,18,18,19,19,20,20,21,21,22,22,23,23,24,24,25,25,26,26,27,27,28,28,29,29,30,30],"right_children":[2,4,6,8,10,12,14,16,18,20,22,24,26,28,30,32,34,36,38,40,42,44,46,48,50,52,54,56,58,60,62,-1,-1,-1,-1,-1,-1,-1,-1,-1,-1,-1,-1,-1,-1,-1,-1,-1,-1,-1,-1,-1,-1,-1,-1,-1,-1,-1,-1,-1,-1,-1,-1],"split_conditions":[3.287633E4,8E0,8E0,2.8831877E4,2.8441473E4,3.666346E4,3.7919668E4,6E0,6E0,2.5865459E4,3.0653662E4,9.1260724E-2,4.2501094E4,3.5271176E4,4.2128945E4,1E0,5E0,3.426781E3,4.478246E3,2.4565979E4,5E0,2.3E1,2.3E1,7E0,6E0,1.5951325E-1,4.617486E4,2.2E1,2.2E1,2.1E1,2E1,1.963E2,1.750783E2,2.0779256E2,1.7729767E2,2.1142242E2,1.9625189E2,2.3974062E2,2.0605438E2,1.9283644E2,2.1131104E2,2.3607613E2,2.2145706E2,2.4894084E2,2.2090523E2,2.6738254E2,2.3555585E2,2.1562361E2,2.407415E2,2.3633716E2,2.7178622E2,2.4574522E2,2.7699188E2,2.7968805E2,3.1432614E2,2.890963E2,2.6215524E2,3.1214346E2,2.8006744E2,3.4769864E2,3.1215158E2,4.0544437E2,3.604462E2],"split_indices":[12,0,0,12,12,12,12,0,0,12,12,17,12,12,12,0,1,9,9,12,1,0,0,0,0,17,12,0,0,0,0,0,0,0,0,0,0,0,0,0,0,0,0,0,0,0,0,0,0,0,0,0,0,0,0,0,0,0,0,0,0,0,0],"split_type":[0,0,0,0,0,0,0,0,0,0,0,0,0,0,0,0,0,0,0,0,0,0,0,0,0,0,0,0,0,0,0,0,0,0,0,0,0,0,0,0,0,0,0,0,0,0,0,0,0,0,0,0,0,0,0,0,0,0,0,0,0,0,0],"sum_hessian":[1.45351E5,9.0247E4,5.5104E4,3.1385E4,5.8862E4,1.7041E4,3.8063E4,1.5377E4,1.6008E4,2.1079E4,3.7783E4,9.757E3,7.284E3,2.5644E4,1.2419E4,1.0378E4,4.999E3,1.2176E4,3.832E3,5.392E3,1.5687E4,2.0382E4,1.7401E4,4.651E3,5.106E3,6.058E3,1.226E3,1.4254E4,1.139E4,8.713E3,3.706E3,1.064E3,9.314E3,3.353E3,1.646E3,4.612E3,7.564E3,2.381E3,1.451E3,1.68E3,3.712E3,8.985E3,6.702E3,1.9195E4,1.187E3,1.6275E4,1.126E3,4.098E3,5.53E2,4.064E3,1.042E3,4.345E3,1.713E3,9.61E2,2.65E2,1.2292E4,1.962E3,9.724E3,1.666E3,6.488E3,2.225E3,2.023E3,1.683E3],"tree_param":{"num_deleted":"0","num_feature":"21","num_nodes":"63","size_leaf_vector":"1"}},{"base_weights":[2.495477E4,2.2778664E4,2.9405906E4,1.9616902E4,2.444681E4,2.4463838E4,3.1605682E4,1.8344742E4,2.0925627E4,2.2714963E4,2.5985229E4,2.365912E4,2.6662406E4,2.9898562E4,3.548849E4,1.7701752E4,1.973342E4,2.0343414E4,2.2774469E4,2.1074238E4,2.3503414E4,2.5177197E4,2.6977934E4,2.2461746E4,2.5058406E4,2.905411E4,2.5990377E4,2.8939045E4,3.135077E4,3.417816E4,3.8690883E4,1.9575748E2,1.7467331E2,2.0719176E2,1.769332E2,1.9684927E2,2.1207571E2,2.4236183E2,2.0892119E2,2.2511972E2,2.045116E2,2.393098E2,2.2625587E2,2.545307E2,2.3326753E2,2.7183563E2,2.3892355E2,2.4596826E2,2.211179E2,2.4583575E2,2.9309955E2,2.8191266E2,3.1518393E2,2.937377E2,2.5524529E2,2.9206793E2,2.6102277E2,2.6791553E2,3.199514E2,3.516148E2,3.1411224E2,4.0910428E2,3.6223325E2],"categories":[],"categories_nodes":[],"categories_segments":[],"categories_sizes":[],"default_left":[0,0,0,0,0,0,0,0,0,0,0,0,0,0,0,0,0,0,0,0,0,0,0,0,0,0,0,0,0,0,0,0,0,0,0,0,0,0,0,0,0,0,0,0,0,0,0,0,0,0,0,0,0,0,0,0,0,0,0,0,0,0,0],"id":25,"left_children":[1,3,5,7,9,11,13,15,17,19,21,23,25,27,29,31,33,35,37,39,41,43,45,47,49,51,53,55,57,59,61,-1,-1,-1,-1,-1,-1,-1,-1,-1,-1,-1,-1,-1,-1,-1,-1,-1,-1,-1,-1,-1,-1,-1,